{"learner":{"attributes":{"best_iteration":"99","best_ntree_limit":"100","scikit_learn":"{\"use_label_encoder\": false, \"n_estimators\": 100, \"objective\": \"binary:logistic\", \"max_depth\": null, \"max_leaves\": null, \"max_bin\": null, \"grow_policy\": null, \"learning_rate\": null, \"verbosity\": null, \"booster\": null, \"tree_method\": null, \"gamma\": null, \"min_child_weight\": null, \"max_delta_step\": null, \"subsample\": null, \"sampling_method\": null, \"colsample_bytree\": null, \"colsample_bylevel\": null, \"colsample_bynode\": null, \"reg_alpha\": null, \"reg_lambda\": null, \"scale_pos_weight\": null, \"base_score\": null, \"missing\": NaN, \"num_parallel_tree\": null, \"random_state\": null, \"n_jobs\": null, \"monotone_constraints\": null, \"interaction_constraints\": null, \"importance_type\": null, \"gpu_id\": null, \"validate_parameters\": null, \"predictor\": null, \"enable_categorical\": false, \"max_cat_to_onehot\": null, \"eval_metric\": \"logloss\", \"early_stopping_rounds\": null, \"callbacks\": null, \"classes_\": [0, 1], \"n_classes_\": 2, \"_estimator_type\": \"classifier\"}"},"feature_names":[],"feature_types":[],"gradient_booster":{"model":{"gbtree_model_param":{"num_parallel_tree":"1","num_trees":"100","size_leaf_vector":"0"},"tree_info":[0,0,0,0,0,0,0,0,0,0,0,0,0,0,0,0,0,0,0,0,0,0,0,0,0,0,0,0,0,0,0,0,0,0,0,0,0,0,0,0,0,0,0,0,0,0,0,0,0,0,0,0,0,0,0,0,0,0,0,0,0,0,0,0,0,0,0,0,0,0,0,0,0,0,0,0,0,0,0,0,0,0,0,0,0,0,0,0,0,0,0,0,0,0,0,0,0,0,0,0],"trees":[{"base_weights":[-0E0,-4.0340945E-3,9.70266E-2,7.0301937E-3,-3.2725573E-2,7.9744816E-2,7.5E-1,-3.1090383E-3,5.064501E-2,-3.9676707E-2,1.10552765E-1,9.52381E-2,-3.6363637E-1,1E0,-0E0,-8.595988E-3,6.940063E-2,7.317073E-2,-8.8737205E-2,-2.955665E-2,-1.2471132E-1,1.7977528E-1,-4E-1,5.5555556E-2,2.7522936E-1,-5.882353E-1,2.2222222E-1,-5.8224164E-3,-1.764706E-1,1.0338681E-1,-1.8181819E-1,9.5359184E-2,-7.6595746E-2,-0E0,-2.9885057E-1,-2.5527192E-2,-2.962963E-1,-1.6161616E-1,2.4390244E-1,1.1042945E-1,7.368421E-1,-6E-1,2.2222222E-1,4.032258E-2,6.666667E-1,3.5051546E-1,-2.5E-1,-7.692308E-1,-0E0,-1.7652251E-3,-1.0725552E-1,-3.2E-1,2E-1,7.8504674E-2,5.3333336E-1,-3.1746034E-2,-6.666667E-1,1.0622951E-1,-2.3076923E-1,-1.1981567E-1,3.6363637E-1,2.955665E-2,-5.4545456E-1,-4E-1,2.5E-1,-1.8091625E-2,-1.6574585E-1,-1E-1,-6.666667E-1,-1.8181819E-1,4E-1,3.3333334E-1,-2.2222222E-1,6.622516E-2,5E-1,1.0769231E0,-0E0,-7.5E-1,-0E0,7.373272E-2,-1.8181819E-1,6.0465115E-1,1.3793103E-1,-0E0,-4E-1,-1E0,-2.2222222E-1],"categories":[],"categories_nodes":[],"categories_segments":[],"categories_sizes":[],"default_left":[1,1,1,1,1,1,1,1,1,1,1,1,1,0,0,1,1,1,1,1,1,1,1,1,1,1,0,1,1,1,1,1,1,1,1,1,1,1,1,1,1,1,0,1,0,1,1,1,0,0,0,0,0,0,0,0,0,0,0,0,0,0,0,0,0,0,0,0,0,0,0,0,0,0,0,0,0,0,0,0,0,0,0,0,0,0,0],"id":0,"left_children":[1,3,5,7,9,11,13,15,17,19,21,23,25,-1,-1,27,29,31,33,35,37,39,41,43,45,47,-1,49,51,53,55,57,59,61,63,65,67,69,71,73,75,77,-1,79,-1,81,83,85,-1,-1,-1,-1,-1,-1,-1,-1,-1,-1,-1,-1,-1,-1,-1,-1,-1,-1,-1,-1,-1,-1,-1,-1,-1,-1,-1,-1,-1,-1,-1,-1,-1,-1,-1,-1,-1,-1,-1],"loss_changes":[1.5664408E0,1.2199553E0,1.7428979E0,1.2267672E0,1.0695517E0,1.1114149E0,7.5E-1,8.963714E-1,1.6493334E0,8.747256E-1,1.8301622E0,1.0721567E0,8.544266E-1,0E0,0E0,9.739648E-1,1.3720653E0,1.506016E0,1.365737E0,9.742811E-1,1.512012E0,1.6376776E0,9.111111E-1,1.1460574E0,1.1651614E0,4.5248866E-1,0E0,8.479812E-1,1.9011765E0,1.4585238E0,1.3795093E0,1.4186337E0,1.1613939E0,8.6251676E-1,1.3074713E0,9.3638873E-1,9.148147E-1,1.1959598E0,5.0135505E-1,6.6863036E-1,1.1902835E0,4.5000005E-1,0E0,9.337035E-1,0E0,1.2267132E0,1.5E-1,1.880343E-1,0E0,0E0,0E0,0E0,0E0,0E0,0E0,0E0,0E0,0E0,0E0,0E0,0E0,0E0,0E0,0E0,0E0,0E0,0E0,0E0,0E0,0E0,0E0,0E0,0E0,0E0,0E0,0E0,0E0,0E0,0E0,0E0,0E0,0E0,0E0,0E0,0E0,0E0,0E0],"parents":[2147483647,0,0,1,1,2,2,3,3,4,4,5,5,6,6,7,7,8,8,9,9,10,10,11,11,12,12,15,15,16,16,17,17,18,18,19,19,20,20,21,21,22,22,23,23,24,24,25,25,27,27,28,28,29,29,30,30,31,31,32,32,33,33,34,34,35,35,36,36,37,37,38,38,39,39,40,40,41,41,43,43,45,45,46,46,47,47],"right_children":[2,4,6,8,10,12,14,16,18,20,22,24,26,-1,-1,28,30,32,34,36,38,40,42,44,46,48,-1,50,52,54,56,58,60,62,64,66,68,70,72,74,76,78,-1,80,-1,82,84,86,-1,-1,-1,-1,-1,-1,-1,-1,-1,-1,-1,-1,-1,-1,-1,-1,-1,-1,-1,-1,-1,-1,-1,-1,-1,-1,-1,-1,-1,-1,-1,-1,-1,-1,-1,-1,-1,-1,-1],"split_conditions":[5E-1,5E-1,5E-1,5E-1,5E-1,5E-1,5E-1,5E-1,5E-1,5E-1,5E-1,5E-1,5E-1,3E-1,-0E0,5E-1,5E-1,5E-1,5E-1,5E-1,5E-1,5E-1,5E-1,5E-1,5E-1,5E-1,6.666667E-2,5E-1,5E-1,5E-1,5E-1,5E-1,5E-1,5E-1,5E-1,5E-1,5E-1,5E-1,5E-1,5E-1,5E-1,5E-1,6.666667E-2,5E-1,2.0000002E-1,5E-1,5E-1,5E-1,-0E0,-5.2956754E-4,-3.217666E-2,-9.6E-2,6.0000002E-2,2.3551403E-2,1.6000001E-1,-9.523811E-3,-2.0000002E-1,3.1868853E-2,-6.923077E-2,-3.5944704E-2,1.0909092E-1,8.866996E-3,-1.6363637E-1,-1.20000005E-1,7.5E-2,-5.4274877E-3,-4.972376E-2,-3.0000001E-2,-2.0000002E-1,-5.454546E-2,1.20000005E-1,1.0000001E-1,-6.666667E-2,1.986755E-2,1.5E-1,3.2307696E-1,-0E0,-2.2500001E-1,-0E0,2.2119816E-2,-5.454546E-2,1.8139535E-1,4.137931E-2,-0E0,-1.20000005E-1,-3E-1,-6.666667E-2],"split_indices":[46,305,271,50,223,25,237,181,330,195,118,183,299,0,0,308,32,247,261,259,131,312,49,319,49,224,0,0,200,90,56,223,267,20,0,211,270,100,237,236,43,5,0,114,0,43,303,298,0,0,0,0,0,0,0,0,0,0,0,0,0,0,0,0,0,0,0,0,0,0,0,0,0,0,0,0,0,0,0,0,0,0,0,0,0,0,0],"split_type":[0,0,0,0,0,0,0,0,0,0,0,0,0,0,0,0,0,0,0,0,0,0,0,0,0,0,0,0,0,0,0,0,0,0,0,0,0,0,0,0,0,0,0,0,0,0,0,0,0,0,0,0,0,0,0,0,0,0,0,0,0,0,0,0,0,0,0,0,0,0,0,0,0,0,0,0,0,0,0,0,0,0,0,0,0,0,0],"sum_hessian":[4E3,3.84125E3,1.5875E2,2.77275E3,1.0685E3,1.5575E2,3E0,2.2505E3,5.2225E2,1.01975E3,4.875E1,1.5125E2,4.5E0,2E0,1E0,2.093E3,1.575E2,4.5E2,7.225E1,9.125E2,1.0725E2,4.35E1,5.25E0,1.25E2,2.625E1,3.25E0,1.25E0,2.06E3,3.3E1,1.3925E2,1.825E1,3.9225E2,5.775E1,5.15E1,2.075E1,9E2,1.25E1,9.8E1,9.25E0,3.975E1,3.75E0,4E0,1.25E0,1.23E2,2E0,2.325E1,3E0,2.25E0,1E0,1.98175E3,7.825E1,2.4E1,9E0,1.3275E2,6.5E0,1.475E1,3.5E0,3.8025E2,1.2E1,5.325E1,4.5E0,4.975E1,1.75E0,1.775E1,3E0,8.5575E2,4.425E1,9E0,3.5E0,9.525E1,2.75E0,8E0,1.25E0,3.675E1,3E0,2.25E0,1.5E0,3E0,1E0,1.075E2,1.55E1,9.75E0,1.35E1,1.5E0,1.5E0,1E0,1.25E0],"tree_param":{"num_deleted":"0","num_feature":"362","num_nodes":"87","size_leaf_vector":"0"}},{"base_weights":[4.1405292E-5,-2.6029046E-3,1.1798681E-1,-1.1500267E-2,3.153582E-2,3.2523554E-2,3.2825905E-1,-4.318415E-3,-6.0206007E-2,2.5700057E-2,4.52788E-1,-1.5349271E-2,7.483844E-1,2.4157752E-1,1.1068021E0,4.149102E-3,-6.7458235E-2,-4.333974E-2,-2.8211674E-1,2.8966151E-2,-5.267685E-1,2.7109757E-1,8.9922386E-1,9.988803E-3,-5.510331E-1,9.0650386E-1,2.225165E-1,1.6884574E-1,7.9937977E-1,-2.4987664E-3,6.7533724E-2,-4.9953457E-2,-2.4487434E-1,-5.441672E-2,2.7300698E-1,-3.5815555E-1,5.4623723E-1,1.9477159E-2,2.138279E-1,-9.139206E-1,3.712329E-3,3.7965217E-1,-2.3542206E-1,-1.658633E-2,4.6891505E-1,1.1268743E-1,5.311276E-1,-1.0596774E-2,5.3356428E-2,5.5661976E-2,5.834209E-1,-3.6556195E-2,-2.8329608E-1,-3.86813E-1,4.55555E-2,-4.2630725E-2,-3.138163E-1,4.875816E-2,7.5131667E-1,-2.4831997E-1,-7.2734976E-1,4.6637557E-3,1.12061046E-1,2.9151273E-1,-1.2125433E-1,4.998624E-1,1.2617489E-2,-4.709841E-2,3.698762E-1,4.670363E-2,5.2784115E-1],"categories":[],"categories_nodes":[],"categories_segments":[],"categories_sizes":[],"default_left":[1,1,1,1,1,1,1,1,1,1,1,1,1,1,0,1,1,1,1,1,1,1,0,1,0,0,0,1,0,1,1,1,1,1,1,1,0,1,1,0,0,1,0,1,0,1,0,0,0,0,0,0,0,0,0,0,0,0,0,0,0,0,0,0,0,0,0,0,0,0,0],"id":1,"left_children":[1,3,5,7,9,11,13,15,17,19,21,23,25,27,-1,29,31,33,35,37,39,41,-1,43,-1,-1,-1,45,-1,47,49,51,53,55,57,59,-1,61,63,-1,-1,65,-1,67,-1,69,-1,-1,-1,-1,-1,-1,-1,-1,-1,-1,-1,-1,-1,-1,-1,-1,-1,-1,-1,-1,-1,-1,-1,-1,-1],"loss_changes":[1.2478766E0,1.1890274E0,1.565997E0,1.0858763E0,1.9779482E0,2.187373E0,1.4362609E0,1.4476006E0,1.4809182E0,1.4575733E0,6.4834523E-1,8.2657355E-1,1.3088226E-1,8.384919E-1,0E0,1.0063792E0,9.8210156E-1,1.3181942E0,1.9591398E0,1.3913965E0,9.788953E-1,5.979183E-1,0E0,7.2419775E-1,0E0,0E0,0E0,3.9780653E-1,0E0,9.7857326E-1,1.3560166E0,9.045897E-1,1.1923418E0,1.0878252E0,1.3308489E0,8.837526E-1,0E0,1.0388323E0,1.04386E0,0E0,0E0,3.466258E-1,0E0,6.83568E-1,0E0,5.436251E-1,0E0,0E0,0E0,0E0,0E0,0E0,0E0,0E0,0E0,0E0,0E0,0E0,0E0,0E0,0E0,0E0,0E0,0E0,0E0,0E0,0E0,0E0,0E0,0E0,0E0],"parents":[2147483647,0,0,1,1,2,2,3,3,4,4,5,5,6,6,7,7,8,8,9,9,10,10,11,11,12,12,13,13,15,15,16,16,17,17,18,18,19,19,20,20,21,21,23,23,27,27,29,29,30,30,31,31,32,32,33,33,34,34,35,35,37,37,38,38,41,41,43,43,45,45],"right_children":[2,4,6,8,10,12,14,16,18,20,22,24,26,28,-1,30,32,34,36,38,40,42,-1,44,-1,-1,-1,46,-1,48,50,52,54,56,58,60,-1,62,64,-1,-1,66,-1,68,-1,70,-1,-1,-1,-1,-1,-1,-1,-1,-1,-1,-1,-1,-1,-1,-1,-1,-1,-1,-1,-1,-1,-1,-1,-1,-1],"split_conditions":[5E-1,5E-1,5E-1,5E-1,5E-1,5E-1,5E-1,5E-1,5E-1,5E-1,5E-1,5E-1,5E-1,5E-1,3.3204064E-1,5E-1,5E-1,5E-1,5E-1,5E-1,5E-1,5E-1,2.6976717E-1,5E-1,-1.6530994E-1,2.7195117E-1,6.675495E-2,5E-1,2.3981394E-1,5E-1,5E-1,5E-1,5E-1,5E-1,5E-1,5E-1,1.6387117E-1,5E-1,5E-1,-2.7417618E-1,1.1136988E-3,5E-1,-7.0626624E-2,5E-1,1.4067452E-1,5E-1,1.5933828E-1,-3.1790321E-3,1.600693E-2,1.6698593E-2,1.7502627E-1,-1.0966859E-2,-8.4988825E-2,-1.1604391E-1,1.366665E-2,-1.2789218E-2,-9.4144896E-2,1.4627448E-2,2.2539501E-1,-7.449599E-2,-2.1820493E-1,1.3991267E-3,3.3618316E-2,8.745382E-2,-3.63763E-2,1.4995873E-1,3.785247E-3,-1.4129523E-2,1.1096287E-1,1.401109E-2,1.5835235E-1],"split_indices":[209,290,183,149,257,57,5,230,113,325,261,226,2,149,0,206,97,125,121,15,270,89,0,78,0,0,0,317,0,184,271,44,293,117,330,124,0,242,261,0,0,187,0,280,0,252,0,0,0,0,0,0,0,0,0,0,0,0,0,0,0,0,0,0,0,0,0,0,0,0,0],"split_type":[0,0,0,0,0,0,0,0,0,0,0,0,0,0,0,0,0,0,0,0,0,0,0,0,0,0,0,0,0,0,0,0,0,0,0,0,0,0,0,0,0,0,0,0,0,0,0,0,0,0,0,0,0,0,0,0,0,0,0,0,0,0,0,0,0,0,0,0,0,0,0],"sum_hessian":[3.999105E3,3.9123684E3,8.673651E1,3.104044E3,8.083245E2,6.249191E1,2.42446E1,2.7061067E3,3.9793738E2,7.98326E2,9.998498E0,5.949197E1,2.9999366E0,2.2994707E1,1.249893E0,2.3869353E3,3.191714E2,3.709395E2,2.6997852E1,7.945762E2,3.7498193E0,8.248693E0,1.7498038E0,5.77421E1,1.749873E0,1.7499366E0,1.25E0,2.149471E1,1.4999951E0,2.1612236E3,2.2571161E2,2.9167484E2,2.7496567E1,3.5919034E2,1.1749179E1,2.5247854E1,1.7499981E0,7.568331E2,3.7743046E1,1.7499019E0,1.9999174E0,6.9991436E0,1.2495503E0,5.549254E1,2.2495592E0,1.974503E1,1.7496827E0,1.8882687E3,2.72955E2,2.2171729E2,3.9943278E0,2.7693158E2,1.4743239E1,1.8247028E1,9.249538E0,3.4469333E2,1.4497028E1,8.749185E0,2.9999945E0,2.0747929E1,4.499926E0,6.5334796E2,1.0348516E2,3.0745169E1,6.9978757E0,4.999746E0,1.9993976E0,5.224575E1,3.2467892E0,1.7997099E1,1.74793E0],"tree_param":{"num_deleted":"0","num_feature":"362","num_nodes":"71","size_leaf_vector":"0"}},{"base_weights":[4.0460337E-4,-4.6912176E-3,4.270656E-2,-1.0257061E-3,-8.283624E-2,3.038936E-2,2.3304087E-1,6.130696E-4,-1.7016058E-1,-9.689809E-2,5.734467E-1,2.6743097E-2,6.714051E-1,3.180737E-1,-4.598209E-1,-2.6840314E-3,7.437999E-2,-2.7259597E-1,5.8080935E-1,-1.1224431E-1,4.4967678E-1,1.4957035E-2,2.21281E-1,4.2991057E-1,-1.8718798E-1,-7.672917E-3,4.8129436E-2,9.274872E-2,-6.411631E-1,-3.3434236E-1,2.81497E-1,-6.26401E-2,-2.702346E-1,6.693987E-1,6.1331643E-3,3.0924678E-3,2.908052E-1,2.8370073E-1,-4.0397573E-1,5.437272E-1,1.4505994E-1,1.3577927E-2,-3.9336127E-1,8.898649E-4,-4.495294E-2,6.113726E-2,-2.0275739E-1,6.427994E-2,3.7029728E-1,-7.7715683E-1,-2.0505287E-1,-4.33583E-1,1.1077062E-2,-2.214782E-1,6.59379E-1,-9.08394E-3,-2.9388964E-1,-3.424506E-1,6.504713E-1,-3.7628184E-3,3.439592E-1,4.09868E-1,-2.438469E-1,3.8427565E-1,-2.523322E-1,6.371798E-1,-3.2838422E-3,2.2252157E-1,4.0218737E-3],"categories":[],"categories_nodes":[],"categories_segments":[],"categories_sizes":[],"default_left":[1,1,1,1,1,1,1,1,1,1,0,1,0,1,0,1,1,1,0,1,1,1,1,1,1,1,1,1,1,1,1,1,1,0,0,1,1,1,0,1,1,0,0,0,0,0,0,0,0,0,0,0,0,0,0,0,0,0,0,0,0,0,0,0,0,0,0,0,0],"id":2,"left_children":[1,3,5,7,9,11,13,15,17,19,-1,21,-1,23,-1,25,27,29,-1,31,33,35,37,39,41,43,45,47,49,51,53,55,57,-1,-1,59,61,63,-1,65,67,-1,-1,-1,-1,-1,-1,-1,-1,-1,-1,-1,-1,-1,-1,-1,-1,-1,-1,-1,-1,-1,-1,-1,-1,-1,-1,-1,-1],"loss_changes":[8.6232114E-1,1.0225991E0,1.0011923E0,9.4564295E-1,1.531716E0,9.28866E-1,1.6775078E0,8.221789E-1,2.676847E0,1.3711816E0,0E0,9.226296E-1,0E0,1.4219744E0,0E0,8.2069993E-1,1.9604006E0,1.1030777E0,0E0,1.189614E0,4.344362E-1,1.2488062E0,1.0121235E0,5.611553E-1,2.1226889E-1,9.409564E-1,9.569927E-1,1.0972708E0,6.282222E-2,9.300325E-1,8.112136E-1,1.4645553E0,2.6486566E0,0E0,0E0,8.591303E-1,1.1016259E0,1.2558774E0,0E0,7.045498E-1,7.557885E-2,0E0,0E0,0E0,0E0,0E0,0E0,0E0,0E0,0E0,0E0,0E0,0E0,0E0,0E0,0E0,0E0,0E0,0E0,0E0,0E0,0E0,0E0,0E0,0E0,0E0,0E0,0E0,0E0],"parents":[2147483647,0,0,1,1,2,2,3,3,4,4,5,5,6,6,7,7,8,8,9,9,11,11,13,13,15,15,16,16,17,17,19,19,20,20,21,21,22,22,23,23,24,24,25,25,26,26,27,27,28,28,29,29,30,30,31,31,32,32,35,35,36,36,37,37,39,39,40,40],"right_children":[2,4,6,8,10,12,14,16,18,20,-1,22,-1,24,-1,26,28,30,-1,32,34,36,38,40,42,44,46,48,50,52,54,56,58,-1,-1,60,62,64,-1,66,68,-1,-1,-1,-1,-1,-1,-1,-1,-1,-1,-1,-1,-1,-1,-1,-1,-1,-1,-1,-1,-1,-1,-1,-1,-1,-1,-1,-1],"split_conditions":[5E-1,5E-1,5E-1,5E-1,5E-1,5E-1,5E-1,5E-1,5E-1,5E-1,1.7203401E-1,5E-1,2.0142153E-1,5E-1,-1.3794628E-1,5E-1,5E-1,5E-1,1.7424281E-1,5E-1,5E-1,5E-1,5E-1,5E-1,5E-1,5E-1,5E-1,5E-1,5E-1,5E-1,5E-1,5E-1,5E-1,2.0081963E-1,1.8399494E-3,5E-1,5E-1,5E-1,-1.2119272E-1,5E-1,5E-1,4.073378E-3,-1.1800838E-1,2.6695948E-4,-1.3485882E-2,1.8341178E-2,-6.0827218E-2,1.9283984E-2,1.1108919E-1,-2.3314705E-1,-6.1515864E-2,-1.300749E-1,3.323119E-3,-6.644346E-2,1.978137E-1,-2.725182E-3,-8.816689E-2,-1.02735184E-1,1.951414E-1,-1.1288456E-3,1.0318777E-1,1.229604E-1,-7.315407E-2,1.152827E-1,-7.5699665E-2,1.9115394E-1,-9.851527E-4,6.675647E-2,1.2065622E-3],"split_indices":[71,29,318,144,95,98,25,94,252,263,0,266,0,195,0,278,24,196,0,89,124,5,297,235,19,2,229,72,261,224,302,183,181,0,0,16,124,206,0,119,59,0,0,0,0,0,0,0,0,0,0,0,0,0,0,0,0,0,0,0,0,0,0,0,0,0,0,0,0],"split_type":[0,0,0,0,0,0,0,0,0,0,0,0,0,0,0,0,0,0,0,0,0,0,0,0,0,0,0,0,0,0,0,0,0,0,0,0,0,0,0,0,0,0,0,0,0,0,0,0,0,0,0,0,0,0,0,0,0,0,0,0,0,0,0,0,0,0,0,0,0],"sum_hessian":[3.9983877E3,3.5693074E3,4.2908038E2,3.4103525E3,1.5895467E2,4.0408997E2,2.4990414E1,3.378613E3,3.1739565E1,1.5645474E2,2.4999254E0,4.028402E2,1.2497393E0,2.2740473E1,2.2499416E0,3.234985E3,1.4362793E2,2.8490368E1,3.249196E0,1.5295485E2,3.4998832E0,3.8084372E2,2.1996498E1,1.8741318E1,3.9991546E0,2.9465415E3,2.8844357E2,1.4088173E2,2.746198E0,2.5990646E1,2.4997215E0,1.1746945E2,3.54854E1,1.9999468E0,1.4999363E0,3.661082E2,1.4735551E1,2.0496578E1,1.4999195E0,1.2741451E1,5.999866E0,2.4994256E0,1.499729E0,2.3969634E3,5.495781E2,2.7494473E2,1.3498846E1,1.2889253E2,1.1989192E1,1.4972779E0,1.2489201E0,1.9991701E1,5.998946E0,1.2499229E0,1.2497985E0,9.6223816E1,2.124564E1,3.3486897E1,1.998503E0,3.5985986E2,6.2483025E0,1.2242611E1,2.4929402E0,1.7496798E1,2.9997814E0,1.0741509E1,1.9999421E0,3.4998953E0,2.499971E0],"tree_param":{"num_deleted":"0","num_feature":"362","num_nodes":"69","size_leaf_vector":"0"}},{"base_weights":[4.3868093E-4,-1.7437477E-3,9.7941026E-2,4.3602448E-4,-9.186571E-2,2.7303532E-2,2.7224398E-1,-2.5197107E-3,7.404617E-2,-6.2592834E-2,-6.5089214E-1,-1.1877079E-2,6.17746E-1,2.0035848E-1,9.2785215E-1,-1.2726194E-3,-1.4674331E-1,5.9607524E-2,6.1300224E-1,-3.6218163E-2,-5.7957256E-1,-1.7970762E-1,-1.0434598E0,2.2053525E-2,-3.928688E-1,7.607863E-1,1.6917954E-1,3.2685432E-1,-1.0401516E-3,-3.5719557E-3,1.16229855E-1,-7.637415E-2,-5.798059E-1,4.4194233E-2,5.983873E-1,1.0768418E0,-5.069183E-2,-9.046618E-2,1.3012025E-1,-9.9089557E-1,2.262098E-1,5.995834E-2,-3.8021648E-1,4.561457E-1,-1.733854E-1,1.4437105E-1,-3.2282105E-1,3.6836806E-4,-4.220864E-2,1.5006314E-1,-2.2290762E-1,-1.4915529E-1,3.1503436E-1,2.661493E-2,4.0694785E-1,-1.3439976E-1,1.6579746E-1,1.8859646E-1,-3.8941497E-1,9.828039E-2,-2.3926395E-1,5.606866E-1,-4.6444707E-2,-1.3600413E-2,-2.7408287E-1,-4.684887E-2,5.087103E-1],"categories":[],"categories_nodes":[],"categories_segments":[],"categories_sizes":[],"default_left":[1,1,1,1,1,1,1,1,1,1,1,1,1,1,0,1,1,1,1,1,1,0,0,1,0,0,0,1,1,1,1,1,0,1,0,0,0,1,1,0,0,1,0,1,1,1,0,0,0,0,0,0,0,0,0,0,0,0,0,0,0,0,0,0,0,0,0],"id":3,"left_children":[1,3,5,7,9,11,13,15,17,19,21,23,25,27,-1,29,31,33,35,37,39,-1,-1,41,-1,-1,-1,43,45,47,49,51,-1,53,-1,-1,-1,55,57,-1,-1,59,-1,61,63,65,-1,-1,-1,-1,-1,-1,-1,-1,-1,-1,-1,-1,-1,-1,-1,-1,-1,-1,-1,-1,-1],"loss_changes":[8.510485E-1,7.685493E-1,1.0706446E0,8.3146113E-1,1.471178E0,1.4745111E0,9.9890816E-1,6.606475E-1,1.1114774E0,1.1911808E0,6.4316344E-1,7.901893E-1,1.2572718E-1,6.100125E-1,0E0,9.8485374E-1,9.153242E-1,1.1758993E0,1.2063662E0,7.846528E-1,1.6322958E0,0E0,0E0,8.836755E-1,0E0,0E0,0E0,1.029973E0,5.252286E-1,5.442329E-1,8.362059E-1,8.514459E-1,0E0,8.936608E-1,0E0,0E0,0E0,7.560907E-1,7.258365E-1,0E0,0E0,6.2506986E-1,0E0,6.543324E-1,5.651409E-2,5.628113E-1,0E0,0E0,0E0,0E0,0E0,0E0,0E0,0E0,0E0,0E0,0E0,0E0,0E0,0E0,0E0,0E0,0E0,0E0,0E0,0E0,0E0],"parents":[2147483647,0,0,1,1,2,2,3,3,4,4,5,5,6,6,7,7,8,8,9,9,10,10,11,11,12,12,13,13,15,15,16,16,17,17,18,18,19,19,20,20,23,23,27,27,28,28,29,29,30,30,31,31,33,33,37,37,38,38,41,41,43,43,44,44,45,45],"right_children":[2,4,6,8,10,12,14,16,18,20,22,24,26,28,-1,30,32,34,36,38,40,-1,-1,42,-1,-1,-1,44,46,48,50,52,-1,54,-1,-1,-1,56,58,-1,-1,60,-1,62,64,66,-1,-1,-1,-1,-1,-1,-1,-1,-1,-1,-1,-1,-1,-1,-1,-1,-1,-1,-1,-1,-1],"split_conditions":[5E-1,5E-1,5E-1,5E-1,5E-1,5E-1,5E-1,5E-1,5E-1,5E-1,5E-1,5E-1,5E-1,5E-1,2.7835566E-1,5E-1,5E-1,5E-1,5E-1,5E-1,5E-1,-5.3912286E-2,-3.1303793E-1,5E-1,-1.1786064E-1,2.282359E-1,5.0753865E-2,5E-1,5E-1,5E-1,5E-1,5E-1,-1.7394178E-1,5E-1,1.795162E-1,3.2305256E-1,-1.52075505E-2,5E-1,5E-1,-2.972687E-1,6.786294E-2,5E-1,-1.1406495E-1,5E-1,5E-1,5E-1,-9.684632E-2,1.10510424E-4,-1.2662593E-2,4.5018945E-2,-6.687229E-2,-4.474659E-2,9.451031E-2,7.98448E-3,1.2208436E-1,-4.0319927E-2,4.9739238E-2,5.6578938E-2,-1.1682449E-1,2.948412E-2,-7.177919E-2,1.6820598E-1,-1.3933413E-2,-4.080124E-3,-8.222486E-2,-1.4054662E-2,1.526131E-1],"split_indices":[209,111,183,46,243,57,5,199,78,49,305,322,137,112,0,292,235,271,76,261,118,0,0,30,0,0,0,121,109,59,77,61,0,127,0,0,0,238,229,0,0,3,0,318,290,320,0,0,0,0,0,0,0,0,0,0,0,0,0,0,0,0,0,0,0,0,0],"split_type":[0,0,0,0,0,0,0,0,0,0,0,0,0,0,0,0,0,0,0,0,0,0,0,0,0,0,0,0,0,0,0,0,0,0,0,0,0,0,0,0,0,0,0,0,0,0,0,0,0,0,0,0,0,0,0,0,0,0,0,0,0,0,0,0,0,0,0],"sum_hessian":[3.9976377E3,3.9110767E3,8.656087E1,3.8196855E3,9.139124E1,6.2420975E1,2.413989E1,3.6731594E3,1.4652594E2,8.790039E1,3.4908514E0,5.9455505E1,2.965467E0,2.2931164E1,1.2087277E0,3.6426704E3,3.048909E1,1.4378455E2,2.7413936E0,8.465178E1,3.248609E0,2.2491064E0,1.2417449E0,5.5458557E1,3.9969482E0,1.7207193E0,1.2447476E0,1.3702119E1,9.229045E0,3.5737083E3,6.896218E1,2.7239286E1,3.2498045E0,1.4083752E2,2.947022E0,1.2472346E0,1.494159E0,6.4177635E1,2.0474146E1,1.9986426E0,1.2499665E0,5.146052E1,3.998036E0,1.0958058E1,2.7440608E0,6.736287E0,2.4927576E0,3.2438752E3,3.2983292E2,6.3213356E1,5.748823E0,2.3490273E1,3.7490127E0,1.3535165E2,5.48587E0,5.5191242E1,8.986391E0,1.8975367E1,1.4987794E0,4.6213417E1,5.247106E0,8.975519E0,1.9825386E0,1.499594E0,1.2444669E0,4.989179E0,1.7471079E0],"tree_param":{"num_deleted":"0","num_feature":"362","num_nodes":"67","size_leaf_vector":"0"}},{"base_weights":[3.644174E-4,-3.1237027E-3,4.0942464E-2,-4.9896566E-3,8.3683066E-2,2.1814646E-2,2.7339393E-1,-3.24286E-3,-1.301277E-1,4.034013E-2,4.741419E-1,-2.5575778E-3,1.8855691E-1,3.458814E-1,-2.5041568E-1,-1.9487571E-3,-1.289412E-1,-8.799082E-2,-6.2349385E-1,5.761419E-2,-4.5635054E-1,6.0076666E-1,-2.7566226E-2,2.2868082E-2,-2.4025476E-1,5.4159965E-2,4.5330873E-1,3.94279E-1,-2.4348365E-1,8.269489E-4,-5.6048684E-2,-2.1152212E-1,1.548397E-1,-1.9554615E-2,-4.6125284E-1,-7.340206E-1,-2.2399983E-1,9.8964095E-2,-1.8454607E-1,8.9370036E-1,2.4824202E-1,3.9376307E-2,-1.5522312E-1,-2.9783398E-1,3.9555988E-1,-2.1032114E-2,6.3777655E-1,8.7214065E-1,1.9337991E-1,3.091938E-1,7.4411476E-1,-3.361556E-3,4.190749E-2,-3.5524923E-2,-3.8483825E-1,-2.5926697E-1,1.21801145E-1,3.6265448E-1,-3.6456934E-1,2.7254801E-2,-6.199236E-1,-6.136055E-1,-4.084027E-2,1.2506182E-1,-2.1312284E-1,-3.567722E-1,3.637893E-1,-5.872185E-3,4.83577E-1,5.067989E-2,-2.2420962E-1,6.041204E-3,-3.976149E-1,-4.3395385E-1,1.9309612E-2,-8.6611815E-2,6.5087485E-1,5.693121E-2,5.802325E-1,4.1686463E-1,3.9938793E-2],"categories":[],"categories_nodes":[],"categories_segments":[],"categories_sizes":[],"default_left":[1,1,1,1,1,1,1,1,1,1,1,1,1,1,0,1,1,1,1,1,0,1,0,1,1,1,1,1,0,1,1,1,1,1,1,0,0,1,1,0,1,1,1,1,0,1,0,0,1,1,0,0,0,0,0,0,0,0,0,0,0,0,0,0,0,0,0,0,0,0,0,0,0,0,0,0,0,0,0,0,0],"id":4,"left_children":[1,3,5,7,9,11,13,15,17,19,21,23,25,27,-1,29,31,33,35,37,-1,39,-1,41,43,45,47,49,-1,51,53,55,57,59,61,-1,-1,63,65,-1,67,69,71,73,-1,75,-1,-1,77,79,-1,-1,-1,-1,-1,-1,-1,-1,-1,-1,-1,-1,-1,-1,-1,-1,-1,-1,-1,-1,-1,-1,-1,-1,-1,-1,-1,-1,-1,-1,-1],"loss_changes":[5.659914E-1,5.9687436E-1,1.4014122E0,7.877726E-1,1.2932065E0,1.1934304E0,9.97097E-1,5.783841E-1,9.765745E-1,6.3451564E-1,5.0285983E-1,1.5593073E0,1.3079445E0,7.088132E-1,0E0,5.2892214E-1,8.8188654E-1,1.1883861E0,7.0500374E-4,7.1313643E-1,0E0,4.1385722E-1,0E0,6.916239E-1,1.0305135E0,1.1532888E0,1.1893072E0,3.722551E-1,0E0,5.767438E-1,1.1462872E0,4.84967E-1,1.0761284E0,1.1594638E0,4.372915E-1,0E0,0E0,5.147257E-1,1.118582E0,0E0,2.527187E-1,6.495259E-1,7.8350306E-1,1.0198786E0,0E0,1.1129521E0,0E0,0E0,4.410764E-1,5.0483274E-1,0E0,0E0,0E0,0E0,0E0,0E0,0E0,0E0,0E0,0E0,0E0,0E0,0E0,0E0,0E0,0E0,0E0,0E0,0E0,0E0,0E0,0E0,0E0,0E0,0E0,0E0,0E0,0E0,0E0,0E0,0E0],"parents":[2147483647,0,0,1,1,2,2,3,3,4,4,5,5,6,6,7,7,8,8,9,9,10,10,11,11,12,12,13,13,15,15,16,16,17,17,18,18,19,19,21,21,23,23,24,24,25,25,26,26,27,27,29,29,30,30,31,31,32,32,33,33,34,34,37,37,38,38,40,40,41,41,42,42,43,43,45,45,48,48,49,49],"right_children":[2,4,6,8,10,12,14,16,18,20,22,24,26,28,-1,30,32,34,36,38,-1,40,-1,42,44,46,48,50,-1,52,54,56,58,60,62,-1,-1,64,66,-1,68,70,72,74,-1,76,-1,-1,78,80,-1,-1,-1,-1,-1,-1,-1,-1,-1,-1,-1,-1,-1,-1,-1,-1,-1,-1,-1,-1,-1,-1,-1,-1,-1,-1,-1,-1,-1,-1,-1],"split_conditions":[5E-1,5E-1,5E-1,5E-1,5E-1,5E-1,5E-1,5E-1,5E-1,5E-1,5E-1,5E-1,5E-1,5E-1,-7.512471E-2,5E-1,5E-1,5E-1,5E-1,5E-1,-1.3690516E-1,5E-1,-8.269868E-3,5E-1,5E-1,5E-1,5E-1,5E-1,-7.30451E-2,5E-1,5E-1,5E-1,5E-1,5E-1,5E-1,-2.2020619E-1,-6.719995E-2,5E-1,5E-1,2.6811013E-1,5E-1,5E-1,5E-1,5E-1,1.1866797E-1,5E-1,1.9133298E-1,2.6164222E-1,5E-1,5E-1,2.2323443E-1,-1.0084668E-3,1.2572248E-2,-1.0657477E-2,-1.1545148E-1,-7.77801E-2,3.6540344E-2,1.0879635E-1,-1.09370805E-1,8.17644E-3,-1.8597709E-1,-1.8408166E-1,-1.2252082E-2,3.751855E-2,-6.393686E-2,-1.07031666E-1,1.0913679E-1,-1.7616556E-3,1.4507312E-1,1.5203967E-2,-6.726289E-2,1.8123613E-3,-1.1928447E-1,-1.3018616E-1,5.7928837E-3,-2.5983546E-2,1.9526246E-1,1.7079363E-2,1.7406976E-1,1.250594E-1,1.1981638E-2],"split_indices":[84,209,242,111,235,303,190,260,299,98,6,3,66,229,0,0,184,312,290,49,0,112,0,228,49,313,121,131,0,300,117,4,237,257,56,0,0,195,260,0,5,259,47,187,0,281,0,0,261,290,0,0,0,0,0,0,0,0,0,0,0,0,0,0,0,0,0,0,0,0,0,0,0,0,0,0,0,0,0,0,0],"split_type":[0,0,0,0,0,0,0,0,0,0,0,0,0,0,0,0,0,0,0,0,0,0,0,0,0,0,0,0,0,0,0,0,0,0,0,0,0,0,0,0,0,0,0,0,0,0,0,0,0,0,0,0,0,0,0,0,0,0,0,0,0,0,0,0,0,0,0,0,0,0,0,0,0,0,0,0,0,0,0,0,0],"sum_hessian":[3.9968738E3,3.6813455E3,3.155283E2,3.604801E3,7.654443E1,2.9254904E2,2.297924E1,3.5561863E3,4.8614735E1,6.988964E1,6.654794E0,2.5610028E2,3.644876E1,2.0484211E1,2.4950294E0,3.5209526E3,3.5233784E1,4.587504E1,2.7396975E0,6.839498E1,1.4946572E0,5.156034E0,1.4987603E0,2.3216968E2,2.3930609E1,2.497512E1,1.1473642E1,1.9235626E1,1.2485847E0,3.350056E3,1.7089667E2,2.7489037E1,7.744746E0,3.9656544E1,6.218492E0,1.490069E0,1.2496283E0,5.8924667E1,9.470313E0,1.9775922E0,3.1784418E0,2.1318712E2,1.8982557E1,2.2430847E1,1.4997606E0,2.2978567E1,1.9965535E0,3.4918325E0,7.9818106E0,1.6987774E1,2.2478528E0,3.0409263E3,3.091297E2,1.6189865E2,8.998019E0,2.4239214E1,3.249823E0,5.747124E0,1.997622E0,3.7673805E1,1.9827384E0,4.227106E0,1.991386E0,5.4930473E1,3.9941936E0,7.472604E0,1.997709E0,1.997064E0,1.1813778E0,2.051953E2,7.9918356E0,1.1984375E1,6.9981813E0,1.5436914E1,6.993933E0,2.1728872E1,1.2496935E0,6.748632E0,1.2331784E0,1.1743512E1,5.2442617E0],"tree_param":{"num_deleted":"0","num_feature":"362","num_nodes":"81","size_leaf_vector":"0"}},{"base_weights":[3.2747025E-4,-5.9080455E-3,2.3995806E-2,-2.2952209E-4,-4.8798334E-2,2.727374E-2,-4.7803745E-1,-3.7918552E-3,8.424292E-2,-4.066444E-2,-5.161453E-1,2.253016E-2,3.371666E-1,-7.502606E-1,-4.500802E-3,1.3196255E-3,-6.314834E-2,9.927701E-2,-5.5597824E-1,-2.0941805E-2,-2.0747077E-1,-6.274205E-1,-1.4626338E-1,1.7223835E-2,2.4509253E-1,1.3709319E-1,6.3503927E-1,-6.5115304E-3,7.284226E-2,-8.1995025E-2,4.8264563E-1,1.2391989E-1,-2.3487316E-1,-1.1230739E-2,-2.8100798E-1,-2.428606E-1,3.9860955E-1,-7.4085814E-1,-1.8453516E-1,3.092634E-3,9.831073E-2,3.609182E-1,-8.409828E-2,2.3470157E-1,-2.481587E-1,7.4157524E-1,1.870597E-1,-9.920546E-3,1.2609777E-1,5.8837887E-2,5.0700104E-1,-6.1446935E-2,-3.6029693E-1,6.0588E-1,6.268741E-3,8.3017625E-2,3.5781288E-1,-5.296119E-1,-6.758856E-2,-1.8344198E-3,-2.6091835E-1,-3.4823874E-1,3.191366E-2,-3.036762E-1,4.8684992E-2,7.976347E-3,-2.9574955E-1,1.1991548E-1,-3.2742083E-1,4.3376034E-1,-2.1938223E-1,1.0832219E-2,-2.3658988E-1,3.2459313E-1,-7.5721845E-2],"categories":[],"categories_nodes":[],"categories_segments":[],"categories_sizes":[],"default_left":[1,1,1,1,1,1,1,1,1,1,1,1,1,0,0,1,1,1,0,1,1,1,0,1,1,1,1,1,1,1,1,1,1,1,1,1,0,0,0,1,1,1,1,1,0,0,0,0,0,0,0,0,0,0,0,0,0,0,0,0,0,0,0,0,0,0,0,0,0,0,0,0,0,0,0],"id":5,"left_children":[1,3,5,7,9,11,13,15,17,19,21,23,25,-1,-1,27,29,31,-1,33,35,37,-1,39,41,43,45,47,49,51,53,55,57,59,61,63,-1,-1,-1,65,67,69,71,73,-1,-1,-1,-1,-1,-1,-1,-1,-1,-1,-1,-1,-1,-1,-1,-1,-1,-1,-1,-1,-1,-1,-1,-1,-1,-1,-1,-1,-1,-1,-1],"loss_changes":[5.900443E-1,7.706888E-1,1.3849345E0,8.415171E-1,1.3853865E0,1.2113245E0,7.0070267E-1,8.141859E-1,1.1443806E0,1.1955459E0,1.6520083E-1,9.615525E-1,6.53705E-1,0E0,0E0,1.3847736E0,2.2282052E0,9.465227E-1,0E0,8.233763E-1,9.2156243E-1,8.913994E-2,0E0,9.1615075E-1,7.5356257E-1,3.8580215E-1,8.649504E-2,1.0086887E0,1.4536337E0,1.1588728E0,4.2164838E-1,9.692075E-1,3.5852253E-1,7.4215364E-1,2.5807935E-1,6.699593E-1,0E0,0E0,0E0,9.9790716E-1,1.130721E0,6.962352E-1,8.5768044E-2,2.3285395E-1,0E0,0E0,0E0,0E0,0E0,0E0,0E0,0E0,0E0,0E0,0E0,0E0,0E0,0E0,0E0,0E0,0E0,0E0,0E0,0E0,0E0,0E0,0E0,0E0,0E0,0E0,0E0,0E0,0E0,0E0,0E0],"parents":[2147483647,0,0,1,1,2,2,3,3,4,4,5,5,6,6,7,7,8,8,9,9,10,10,11,11,12,12,15,15,16,16,17,17,19,19,20,20,21,21,23,23,24,24,25,25,26,26,27,27,28,28,29,29,30,30,31,31,32,32,33,33,34,34,35,35,39,39,40,40,41,41,42,42,43,43],"right_children":[2,4,6,8,10,12,14,16,18,20,22,24,26,-1,-1,28,30,32,-1,34,36,38,-1,40,42,44,46,48,50,52,54,56,58,60,62,64,-1,-1,-1,66,68,70,72,74,-1,-1,-1,-1,-1,-1,-1,-1,-1,-1,-1,-1,-1,-1,-1,-1,-1,-1,-1,-1,-1,-1,-1,-1,-1,-1,-1,-1,-1,-1,-1],"split_conditions":[5E-1,5E-1,5E-1,5E-1,5E-1,5E-1,5E-1,5E-1,5E-1,5E-1,5E-1,5E-1,5E-1,-2.2507818E-1,-1.3502407E-3,5E-1,5E-1,5E-1,-1.6679348E-1,5E-1,5E-1,5E-1,-4.3879014E-2,5E-1,5E-1,5E-1,5E-1,5E-1,5E-1,5E-1,5E-1,5E-1,5E-1,5E-1,5E-1,5E-1,1.1958287E-1,-2.2225745E-1,-5.5360552E-2,5E-1,5E-1,5E-1,5E-1,5E-1,-7.444761E-2,2.2247258E-1,5.611791E-2,-2.976164E-3,3.7829332E-2,1.7651366E-2,1.5210032E-1,-1.8434081E-2,-1.0808908E-1,1.81764E-1,1.8806224E-3,2.4905289E-2,1.0734387E-1,-1.5888357E-1,-2.0276569E-2,-5.5032596E-4,-7.827551E-2,-1.04471624E-1,9.5740985E-3,-9.110286E-2,1.4605498E-2,2.3929041E-3,-8.872487E-2,3.5974644E-2,-9.822626E-2,1.3012812E-1,-6.5814674E-2,3.249666E-3,-7.0976965E-2,9.737794E-2,-2.2716554E-2],"split_indices":[290,247,325,210,308,257,270,190,236,240,270,298,237,0,0,206,128,205,0,266,62,72,0,231,2,19,236,322,16,24,187,266,305,90,187,109,0,0,0,275,225,229,270,56,0,0,0,0,0,0,0,0,0,0,0,0,0,0,0,0,0,0,0,0,0,0,0,0,0,0,0,0,0,0,0],"split_type":[0,0,0,0,0,0,0,0,0,0,0,0,0,0,0,0,0,0,0,0,0,0,0,0,0,0,0,0,0,0,0,0,0,0,0,0,0,0,0,0,0,0,0,0,0,0,0,0,0,0,0,0,0,0,0,0,0,0,0,0,0,0,0,0,0,0,0,0,0,0,0,0,0,0,0],"sum_hessian":[3.9960557E3,3.1633967E3,8.3265894E2,2.7944294E3,3.6896732E2,8.28197E2,4.461891E0,2.682269E3,1.1216032E2,3.637239E2,5.243385E0,8.1676733E2,1.1429687E1,2.4621131E0,1.9997777E0,2.4705E3,2.117692E2,1.10412476E2,1.7478456E0,3.2627213E2,3.74518E1,3.4955208E0,1.7478641E0,7.9879974E2,1.7967575E1,7.7107887E0,3.718898E0,2.227514E3,2.4298598E2,2.0552213E2,6.247068E0,1.03414986E2,6.9974895E0,3.1553305E2,1.0739058E1,3.595182E1,1.4999815E0,2.2471514E0,1.2483692E0,6.8113495E2,1.17664825E2,1.321981E1,4.7477655E0,6.4638705E0,1.2469183E0,2.4749434E0,1.2439545E0,2.172588E3,5.4925983E1,2.364931E2,6.4928823E0,1.9252786E2,1.2994275E1,4.7471685E0,1.4998996E0,8.917531E1,1.4239677E1,1.7493594E0,5.2481303E0,3.050603E2,1.0472773E1,8.74693E0,1.9921273E0,2.971231E1,6.2395105E0,6.711404E2,9.994542E0,1.1266567E2,4.9991536E0,1.1969823E1,1.2499862E0,3.498692E0,1.2490735E0,4.976999E0,1.486872E0],"tree_param":{"num_deleted":"0","num_feature":"362","num_nodes":"75","size_leaf_vector":"0"}},{"base_weights":[1.0395453E-4,6.9634207E-3,-1.7599432E-2,1.3729754E-2,-3.0323606E-2,-1.0044619E-2,-1.2209027E-1,2.2404883E-2,-2.4453457E-2,-6.2750134E-4,-1.5967937E-1,-6.1860774E-3,-2.2056977E-1,-9.1454476E-2,-7.7210265E-1,1.615526E-2,1.2558058E-1,-1.34803625E-2,-3.1834775E-1,2.1570941E-2,-1.4867553E-1,-1.0041031E-1,-5.370238E-1,-2.5984146E-2,4.0798817E-2,-4.3071935E-1,2.940128E-2,-1.1510243E-1,5.539064E-1,1.2565143E-2,1.6851395E-1,1.0357612E-1,7.896059E-1,2.862095E-3,-1.7699854E-1,-6.600018E-2,-7.669179E-1,2.8518862E-3,2.1927562E-1,-6.999203E-2,-3.9415342E-1,-2.311883E-1,3.572034E-2,-7.3334247E-1,-1.0397127E-2,-3.5126623E-2,1.8240783E-1,7.237911E-2,-1.4417033E-1,-2.2416598E-1,-9.132642E-1,1.5166298E-1,-2.868445E-1,-1.5680441E-1,1.4834E-1,7.699428E-3,9.521999E-2,2.0301604E-1,-2.8032818E-1,7.378552E-2,5.05038E-1,-1.7953187E-2,1.4843109E-1,-1.2043464E-1,-7.746621E-1,-1.7583686E-1,3.9887214E-1,-8.7545717E-1,-2.0904136E-1,1.6630353E-2,-2.9088512E-1,-1.6592257E-2,5.2073294E-1,-1.08399175E-1,1.9745569E-1,-2.0166226E-1,-1.07525E0,-1.6358912E-1,-8.359754E-1,7.652832E-2,-4.9363825E-1,-9.0850383E-1,1.5329769E-2,1.8144353E-1,-2.4026299E-1,-4.2661622E-2,1.5393224E-1,2.4493626E-1,-5.3721535E-1,4.598678E-2,2.0219728E-1,-1.8415561E-1,5.3317463E-1,-3.5965976E-1,1.9020878E-1,-1.0180819E-1,3.6940238E-1,-1.0343994E-1,-4.0150747E-1,2.8746933E-1,-3.9746445E-1],"categories":[],"categories_nodes":[],"categories_segments":[],"categories_sizes":[],"default_left":[1,1,1,1,1,1,1,1,1,1,1,1,1,1,0,1,1,1,1,1,1,1,1,1,1,1,1,1,0,1,1,1,0,1,1,1,1,1,1,1,1,1,1,1,1,1,1,1,1,1,0,1,0,1,1,0,0,0,0,0,0,0,0,0,0,0,0,0,0,0,0,0,0,0,0,0,0,0,0,0,0,0,0,0,0,0,0,0,0,0,0,0,0,0,0,0,0,0,0,0,0],"id":6,"left_children":[1,3,5,7,9,11,13,15,17,19,21,23,25,27,-1,29,31,33,35,37,39,41,43,45,47,49,51,53,-1,55,57,59,-1,61,63,65,67,69,71,73,75,77,79,81,83,85,87,89,91,93,-1,95,-1,97,99,-1,-1,-1,-1,-1,-1,-1,-1,-1,-1,-1,-1,-1,-1,-1,-1,-1,-1,-1,-1,-1,-1,-1,-1,-1,-1,-1,-1,-1,-1,-1,-1,-1,-1,-1,-1,-1,-1,-1,-1,-1,-1,-1,-1,-1,-1],"loss_changes":[4.8541054E-1,7.272743E-1,8.7997794E-1,8.085047E-1,1.7008977E0,8.451599E-1,1.4264388E0,1.2799194E0,1.4535446E0,1.1900675E0,1.7950244E0,9.539483E-1,9.964331E-1,1.1767412E0,0E0,1.0238663E0,1.5751501E0,1.1678305E0,1.7861509E0,1.1648576E0,8.843856E-1,1.3021631E0,1.1288557E0,1.380659E0,1.7866251E0,8.157048E-1,4.1040754E-1,8.0522615E-1,0E0,7.36697E-1,7.2436154E-1,1.2892315E0,0E0,1.2089888E0,1.249034E0,6.562403E-1,1.6502953E-1,1.1732696E0,1.944476E0,4.01166E-1,1.2574011E0,1.384191E0,8.257586E-1,1.0621266E0,2.1996012E-1,9.92123E-1,1.5029298E0,8.8285863E-1,1.3082404E0,5.4533434E-1,0E0,4.5141357E-1,0E0,7.672647E-1,8.91954E-1,0E0,0E0,0E0,0E0,0E0,0E0,0E0,0E0,0E0,0E0,0E0,0E0,0E0,0E0,0E0,0E0,0E0,0E0,0E0,0E0,0E0,0E0,0E0,0E0,0E0,0E0,0E0,0E0,0E0,0E0,0E0,0E0,0E0,0E0,0E0,0E0,0E0,0E0,0E0,0E0,0E0,0E0,0E0,0E0,0E0,0E0],"parents":[2147483647,0,0,1,1,2,2,3,3,4,4,5,5,6,6,7,7,8,8,9,9,10,10,11,11,12,12,13,13,15,15,16,16,17,17,18,18,19,19,20,20,21,21,22,22,23,23,24,24,25,25,26,26,27,27,29,29,30,30,31,31,33,33,34,34,35,35,36,36,37,37,38,38,39,39,40,40,41,41,42,42,43,43,44,44,45,45,46,46,47,47,48,48,49,49,51,51,53,53,54,54],"right_children":[2,4,6,8,10,12,14,16,18,20,22,24,26,28,-1,30,32,34,36,38,40,42,44,46,48,50,52,54,-1,56,58,60,-1,62,64,66,68,70,72,74,76,78,80,82,84,86,88,90,92,94,-1,96,-1,98,100,-1,-1,-1,-1,-1,-1,-1,-1,-1,-1,-1,-1,-1,-1,-1,-1,-1,-1,-1,-1,-1,-1,-1,-1,-1,-1,-1,-1,-1,-1,-1,-1,-1,-1,-1,-1,-1,-1,-1,-1,-1,-1,-1,-1,-1,-1],"split_conditions":[5E-1,5E-1,5E-1,5E-1,5E-1,5E-1,5E-1,5E-1,5E-1,5E-1,5E-1,5E-1,5E-1,5E-1,-2.316308E-1,5E-1,5E-1,5E-1,5E-1,5E-1,5E-1,5E-1,5E-1,5E-1,5E-1,5E-1,5E-1,5E-1,1.6617192E-1,5E-1,5E-1,5E-1,2.3688178E-1,5E-1,5E-1,5E-1,5E-1,5E-1,5E-1,5E-1,5E-1,5E-1,5E-1,5E-1,5E-1,5E-1,5E-1,5E-1,5E-1,5E-1,-2.7397928E-1,5E-1,-8.605335E-2,5E-1,5E-1,2.3098285E-3,2.8566E-2,6.0904816E-2,-8.409846E-2,2.2135656E-2,1.5151142E-1,-5.3859563E-3,4.452933E-2,-3.6130395E-2,-2.3239863E-1,-5.275106E-2,1.19661644E-1,-2.6263717E-1,-6.271241E-2,4.989106E-3,-8.7265536E-2,-4.977677E-3,1.5621988E-1,-3.2519754E-2,5.923671E-2,-6.049868E-2,-3.2257503E-1,-4.907674E-2,-2.5079262E-1,2.2958497E-2,-1.4809148E-1,-2.7255115E-1,4.598931E-3,5.443306E-2,-7.20789E-2,-1.2798487E-2,4.6179675E-2,7.348088E-2,-1.6116461E-1,1.3796034E-2,6.065919E-2,-5.5246685E-2,1.599524E-1,-1.0789793E-1,5.7062637E-2,-3.0542457E-2,1.1082072E-1,-3.1031983E-2,-1.2045225E-1,8.62408E-2,-1.1923934E-1],"split_indices":[305,330,20,2,242,98,59,201,139,32,3,121,86,227,0,313,46,190,124,59,112,273,113,119,97,32,240,290,0,130,47,122,0,71,32,142,261,258,273,186,235,235,48,9,89,42,77,19,254,187,0,32,0,54,62,0,0,0,0,0,0,0,0,0,0,0,0,0,0,0,0,0,0,0,0,0,0,0,0,0,0,0,0,0,0,0,0,0,0,0,0,0,0,0,0,0,0,0,0,0,0],"split_type":[0,0,0,0,0,0,0,0,0,0,0,0,0,0,0,0,0,0,0,0,0,0,0,0,0,0,0,0,0,0,0,0,0,0,0,0,0,0,0,0,0,0,0,0,0,0,0,0,0,0,0,0,0,0,0,0,0,0,0,0,0,0,0,0,0,0,0,0,0,0,0,0,0,0,0,0,0,0,0,0,0,0,0,0,0,0,0,0,0,0,0,0,0,0,0,0,0,0,0,0,0],"sum_hessian":[3.995252E3,2.879968E3,1.1152839E3,2.4381567E3,4.4181113E2,1.0411068E3,7.417714E1,1.9871049E3,4.51052E2,3.601391E2,8.167201E1,1.02337946E3,1.7727295E1,7.19278E1,2.2493396E0,1.8747056E3,1.1239927E2,4.358255E2,1.5226495E1,3.1392346E2,4.6215645E1,7.16795E1,9.99252E0,7.2030914E2,3.0307034E2,9.23793E0,8.489365E0,7.017792E1,1.749883E0,1.8326052E3,4.2100273E1,1.09912964E2,2.486309E0,3.9711887E2,3.8706654E1,1.0478722E1,4.7477736E0,2.876981E2,2.6225378E1,3.5970936E1,1.0244708E1,3.6202347E1,3.547715E1,6.9930754E0,2.9994445E0,6.908327E2,2.9476456E1,2.5939227E2,4.3678062E1,7.494471E0,1.7434593E0,6.4977427E0,1.9916224E0,6.0936653E1,9.241264E0,1.7317538E3,1.00851524E2,3.9603664E1,2.4966083E0,1.0342227E2,6.4906893E0,3.4820483E2,4.8914024E1,3.645774E1,2.248914E0,8.978984E0,1.4997373E0,3.4979527E0,1.2498211E0,2.7570868E2,1.198942E1,1.52434635E1,1.09819145E1,3.1973967E1,3.99697E0,8.99783E0,1.2468777E0,3.370546E1,2.4968865E0,3.3732185E1,1.7449645E0,5.4941607E0,1.4989147E0,1.7497767E0,1.2496679E0,6.650993E2,2.5733389E1,2.7726883E1,1.749571E0,2.1669244E2,4.269983E1,4.19309E1,1.7471601E0,5.747255E0,1.7472163E0,3.2485387E0,3.2492037E0,5.119487E1,9.741784E0,7.741272E0,1.4999928E0],"tree_param":{"num_deleted":"0","num_feature":"362","num_nodes":"101","size_leaf_vector":"0"}},{"base_weights":[-3.1545572E-4,4.4349288E-3,-2.3912735E-2,-4.6823076E-3,3.1231724E-2,-2.8083598E-2,4.2398885E-1,2.1292965E-3,-6.565945E-2,2.4861986E-2,2.6625076E-1,-3.8872898E-2,1.3089977E-1,6.325889E-1,-2.2730424E-1,8.873431E-3,-7.2449334E-2,-5.8108564E-2,-7.888172E-1,2.9758988E-2,-2.1304521E-1,3.6235017E-1,-2.6150417E-1,-4.9126025E-2,1.2744434E-1,1.997909E-1,-2.8180483E-1,7.6248646E-1,2.478363E-1,4.861417E-3,1.259965E-1,-4.2907767E-2,-3.8303044E-1,-3.9330073E-2,-3.3287737E-1,3.8078777E-2,-1.10556476E-1,-2.6373023E-1,2.3079814E-1,4.6501344E-1,-2.2618322E-2,-5.62309E-1,2.2212744E-1,-5.7180196E-2,1.7959434E-1,3.4972128E-2,5.6909025E-1,2.6431742E-1,-1.7769031E-1,-4.377951E-1,4.6939693E-2,-3.9987774E-3,6.6469684E-2,5.271516E-2,3.6074635E-1,-6.445194E-2,2.5562924E-1,-4.8560774E-1,2.2614974E-1,-1.6845452E-2,-3.2490993E-1,-4.9189973E-1,7.4035916E-3,4.420812E-2,-1.4886424E-1,-1.3614509E-2,-5.46555E-1,-3.149163E-1,1.4937792E-3,5.42857E-1,-3.3276375E-2,-1.7768516E-1,1.6904262E-1,-5.1906E-2,-3.70404E-1,1.137496E-1,6.5523756E-1,-1.130421E-2,6.359775E-1,7.423125E-1,1.803294E-1,3.068437E-1,-3.6079177E-1,2.4714367E-3,-3.58911E-1,-6.753302E-1,-1.3874996E-1],"categories":[],"categories_nodes":[],"categories_segments":[],"categories_sizes":[],"default_left":[1,1,1,1,1,1,1,1,1,1,1,1,1,1,0,1,1,1,0,1,1,1,1,1,1,1,1,0,0,1,1,1,1,1,1,1,1,1,0,1,1,0,0,1,1,1,1,1,1,1,0,0,0,0,0,0,0,0,0,0,0,0,0,0,0,0,0,0,0,0,0,0,0,0,0,0,0,0,0,0,0,0,0,0,0,0,0],"id":7,"left_children":[1,3,5,7,9,11,13,15,17,19,21,23,25,27,-1,29,31,33,-1,35,37,39,41,43,45,47,49,-1,-1,51,53,55,57,59,61,63,65,67,-1,69,71,-1,-1,73,75,77,79,81,83,85,-1,-1,-1,-1,-1,-1,-1,-1,-1,-1,-1,-1,-1,-1,-1,-1,-1,-1,-1,-1,-1,-1,-1,-1,-1,-1,-1,-1,-1,-1,-1,-1,-1,-1,-1,-1,-1],"loss_changes":[4.4793314E-1,8.12828E-1,1.2628605E0,1.0313847E0,1.257724E0,1.144723E0,9.915769E-1,1.1244291E0,1.3166196E0,9.656227E-1,1.2198435E0,1.0685341E0,1.2632748E0,6.045592E-2,0E0,9.6263766E-1,1.6846318E0,1.2665932E0,0E0,9.470759E-1,4.37213E-1,7.68775E-1,7.065324E-1,1.0925043E0,1.4687531E0,9.473244E-1,3.5323322E-1,0E0,0E0,1.0827379E0,1.1482457E0,1.1125995E0,1.1081915E0,1.4924645E0,8.5491776E-1,8.810867E-1,1.9142056E0,2.1064174E-1,0E0,6.0737205E-1,1.7842524E-1,0E0,0E0,9.1953886E-1,5.5890036E-1,8.750908E-1,2.8671026E-1,9.6058345E-1,1.9659242E-1,2.2570807E-1,0E0,0E0,0E0,0E0,0E0,0E0,0E0,0E0,0E0,0E0,0E0,0E0,0E0,0E0,0E0,0E0,0E0,0E0,0E0,0E0,0E0,0E0,0E0,0E0,0E0,0E0,0E0,0E0,0E0,0E0,0E0,0E0,0E0,0E0,0E0,0E0,0E0],"parents":[2147483647,0,0,1,1,2,2,3,3,4,4,5,5,6,6,7,7,8,8,9,9,10,10,11,11,12,12,13,13,15,15,16,16,17,17,19,19,20,20,21,21,22,22,23,23,24,24,25,25,26,26,29,29,30,30,31,31,32,32,33,33,34,34,35,35,36,36,37,37,39,39,40,40,43,43,44,44,45,45,46,46,47,47,48,48,49,49],"right_children":[2,4,6,8,10,12,14,16,18,20,22,24,26,28,-1,30,32,34,-1,36,38,40,42,44,46,48,50,-1,-1,52,54,56,58,60,62,64,66,68,-1,70,72,-1,-1,74,76,78,80,82,84,86,-1,-1,-1,-1,-1,-1,-1,-1,-1,-1,-1,-1,-1,-1,-1,-1,-1,-1,-1,-1,-1,-1,-1,-1,-1,-1,-1,-1,-1,-1,-1,-1,-1,-1,-1,-1,-1],"split_conditions":[5E-1,5E-1,5E-1,5E-1,5E-1,5E-1,5E-1,5E-1,5E-1,5E-1,5E-1,5E-1,5E-1,5E-1,-6.8191275E-2,5E-1,5E-1,5E-1,-2.3664518E-1,5E-1,5E-1,5E-1,5E-1,5E-1,5E-1,5E-1,5E-1,2.2874595E-1,7.435089E-2,5E-1,5E-1,5E-1,5E-1,5E-1,5E-1,5E-1,5E-1,5E-1,6.9239445E-2,5E-1,5E-1,-1.6869271E-1,6.663823E-2,5E-1,5E-1,5E-1,5E-1,5E-1,5E-1,5E-1,1.4081908E-2,-1.1996332E-3,1.9940905E-2,1.5814548E-2,1.0822391E-1,-1.9335583E-2,7.6688774E-2,-1.4568233E-1,6.784493E-2,-5.0536357E-3,-9.747298E-2,-1.4756992E-1,2.2210777E-3,1.3262437E-2,-4.465927E-2,-4.084353E-3,-1.639665E-1,-9.44749E-2,4.481338E-4,1.628571E-1,-9.982913E-3,-5.3305548E-2,5.0712787E-2,-1.5571801E-2,-1.1112121E-1,3.412488E-2,1.9657128E-1,-3.391263E-3,1.9079326E-1,2.2269376E-1,5.4098822E-2,9.2053115E-2,-1.08237535E-1,7.414311E-4,-1.0767331E-1,-2.0259908E-1,-4.162499E-2],"split_indices":[6,112,17,66,319,181,112,57,45,279,261,130,49,230,0,128,16,20,0,55,280,66,290,24,187,187,280,0,0,122,109,257,206,29,270,148,19,32,0,125,330,0,0,136,323,125,89,195,302,305,0,0,0,0,0,0,0,0,0,0,0,0,0,0,0,0,0,0,0,0,0,0,0,0,0,0,0,0,0,0,0,0,0,0,0,0,0],"split_type":[0,0,0,0,0,0,0,0,0,0,0,0,0,0,0,0,0,0,0,0,0,0,0,0,0,0,0,0,0,0,0,0,0,0,0,0,0,0,0,0,0,0,0,0,0,0,0,0,0,0,0,0,0,0,0,0,0,0,0,0,0,0,0,0,0,0,0,0,0,0,0,0,0,0,0,0,0,0,0,0,0,0,0,0,0,0,0],"sum_hessian":[3.9940264E3,3.3254E3,6.686265E2,2.4818203E3,8.435796E2,6.6338635E2,5.2401595E0,2.233308E3,2.4851219E2,8.2239594E2,2.1183666E1,6.219347E2,4.145168E1,3.9907095E0,1.2494501E0,2.0489067E3,1.8440132E2,2.4701334E2,1.4988476E0,8.066667E2,1.5729246E1,1.8185638E1,2.9980283E0,5.864837E2,3.545094E1,3.596422E1,5.487463E0,2.2494934E0,1.7412162E0,1.9820537E3,6.685312E1,1.6942433E2,1.4976995E1,2.3228168E2,1.4731661E1,7.622017E2,4.446495E1,1.4481342E1,1.2479041E0,1.4192785E1,3.9928536E0,1.7480876E0,1.2499406E0,5.6725824E2,1.9225466E1,3.0205643E1,5.245298E0,3.0970001E1,4.9942164E0,3.4965982E0,1.9908649E0,1.7336621E3,2.4839156E2,5.188184E1,1.4971282E1,1.5875197E2,1.067236E1,1.2992151E1,1.9848439E0,2.1630989E2,1.5971788E1,9.736136E0,4.9955244E0,7.387439E2,2.3457851E1,3.7220413E1,7.244537E0,1.1981625E1,2.4997168E0,1.2197788E1,1.9949967E0,2.2474399E0,1.7454137E0,5.590111E2,8.247154E0,1.7976124E1,1.2493407E0,2.8957182E1,1.24846E0,2.9994051E0,2.245893E0,2.9474014E1,1.4959862E0,2.9990518E0,1.9951646E0,1.2474475E0,2.2491508E0],"tree_param":{"num_deleted":"0","num_feature":"362","num_nodes":"87","size_leaf_vector":"0"}},{"base_weights":[-2.4236686E-4,-1.9049557E-3,6.516433E-2,-8.620634E-3,1.753574E-2,9.807138E-2,-2.652916E-1,-3.9602183E-3,-6.854024E-2,1.3803193E-2,4.7926274E-1,1.4072523E-1,-1.1913726E-1,-6.289866E-2,-6.653993E-1,-2.8273655E-5,-7.869396E-2,-5.7638243E-2,-7.412797E-1,2.0689638E-2,-1.1685069E-1,2.2223257E-1,8.8882184E-1,1.1375669E-1,5.7253736E-1,-2.1561505E-1,3.552995E-1,-1.7119135E-1,2.536638E-1,5.449524E-3,-7.6297946E-2,-5.604437E-2,-4.3055695E-1,-4.4237312E-2,-3.853493E-1,1.7251953E-2,2.813959E-1,-7.364463E-2,-5.121148E-1,3.469438E-1,-2.88411E-2,7.381522E-2,4.6693647E-1,9.7315466E-1,-2.152954E-1,9.2762046E-2,-4.5565462E-1,-3.4947628E-1,1.6725758E-1,-5.2051566E-4,7.3738135E-2,-5.0750997E-2,-4.367255E-1,-9.032214E-2,1.8959321E-1,-8.9460695E-1,-1.603332E-2,-6.408918E-2,1.5995888E-1,-5.33381E-1,2.2946428E-1,2.812518E-2,-7.3808685E-2,3.6019856E-1,-2.2827983E-1,-1.7918406E-1,1.3706735E-1,-7.546176E-1,7.925073E-3,1.0659577E-1,-2.9363957E-1,6.511532E-1,-1.0655387E-2,-6.747632E-2,3.904383E-1,-5.999814E-1,-2.5444424E-2,-6.487982E-1,-8.636463E-3],"categories":[],"categories_nodes":[],"categories_segments":[],"categories_sizes":[],"default_left":[1,1,1,1,1,1,1,1,1,1,1,1,1,1,0,1,1,1,0,1,1,1,0,1,1,1,0,1,0,1,1,1,1,1,1,1,1,1,1,0,0,1,1,0,0,1,1,1,0,0,0,0,0,0,0,0,0,0,0,0,0,0,0,0,0,0,0,0,0,0,0,0,0,0,0,0,0,0,0],"id":8,"left_children":[1,3,5,7,9,11,13,15,17,19,21,23,25,27,-1,29,31,33,-1,35,37,39,-1,41,43,45,-1,47,-1,49,51,53,55,57,59,61,63,65,67,-1,-1,69,71,-1,-1,73,75,77,-1,-1,-1,-1,-1,-1,-1,-1,-1,-1,-1,-1,-1,-1,-1,-1,-1,-1,-1,-1,-1,-1,-1,-1,-1,-1,-1,-1,-1,-1,-1],"loss_changes":[4.3445623E-1,5.0880635E-1,1.1029866E0,8.0854523E-1,1.7179024E0,8.57996E-1,7.0631224E-1,7.899901E-1,1.4898021E0,8.9643955E-1,6.4405036E-1,8.2403207E-1,7.8357697E-1,2.9161614E-1,0E0,1.0678918E0,1.0467813E0,8.907409E-1,0E0,8.4184897E-1,8.144804E-1,2.0555726E-1,0E0,9.9690497E-1,1.5478483E0,1.0384291E0,0E0,4.199816E-1,0E0,9.7227806E-1,1.5549313E0,1.0898067E0,1.5201181E0,8.1984115E-1,8.4967375E-1,9.2636865E-1,5.734289E-1,1.0508983E0,6.0490346E-1,0E0,0E0,8.368055E-1,6.439686E-1,0E0,0E0,3.469385E-1,4.6509135E-1,4.2777884E-1,0E0,0E0,0E0,0E0,0E0,0E0,0E0,0E0,0E0,0E0,0E0,0E0,0E0,0E0,0E0,0E0,0E0,0E0,0E0,0E0,0E0,0E0,0E0,0E0,0E0,0E0,0E0,0E0,0E0,0E0,0E0],"parents":[2147483647,0,0,1,1,2,2,3,3,4,4,5,5,6,6,7,7,8,8,9,9,10,10,11,11,12,12,13,13,15,15,16,16,17,17,19,19,20,20,21,21,23,23,24,24,25,25,27,27,29,29,30,30,31,31,32,32,33,33,34,34,35,35,36,36,37,37,38,38,41,41,42,42,45,45,46,46,47,47],"right_children":[2,4,6,8,10,12,14,16,18,20,22,24,26,28,-1,30,32,34,-1,36,38,40,-1,42,44,46,-1,48,-1,50,52,54,56,58,60,62,64,66,68,-1,-1,70,72,-1,-1,74,76,78,-1,-1,-1,-1,-1,-1,-1,-1,-1,-1,-1,-1,-1,-1,-1,-1,-1,-1,-1,-1,-1,-1,-1,-1,-1,-1,-1,-1,-1,-1,-1],"split_conditions":[5E-1,5E-1,5E-1,5E-1,5E-1,5E-1,5E-1,5E-1,5E-1,5E-1,5E-1,5E-1,5E-1,5E-1,-1.996198E-1,5E-1,5E-1,5E-1,-2.2238393E-1,5E-1,5E-1,5E-1,2.6664656E-1,5E-1,5E-1,5E-1,1.06589854E-1,5E-1,7.609914E-2,5E-1,5E-1,5E-1,5E-1,5E-1,5E-1,5E-1,5E-1,5E-1,5E-1,1.0408314E-1,-8.65233E-3,5E-1,5E-1,2.919464E-1,-6.458862E-2,5E-1,5E-1,5E-1,5.0177276E-2,-1.5615471E-4,2.212144E-2,-1.52253E-2,-1.3101766E-1,-2.7096642E-2,5.6877967E-2,-2.683821E-1,-4.809996E-3,-1.9226754E-2,4.7987666E-2,-1.600143E-1,6.883929E-2,8.437554E-3,-2.2142606E-2,1.0805957E-1,-6.848395E-2,-5.375522E-2,4.1120205E-2,-2.2638528E-1,2.377522E-3,3.1978734E-2,-8.809187E-2,1.9534597E-1,-3.1966164E-3,-2.0242896E-2,1.17131494E-1,-1.7999443E-1,-7.6333275E-3,-1.9463947E-1,-2.5909392E-3],"split_indices":[263,293,25,30,283,125,230,29,283,211,273,20,54,6,0,57,49,197,0,7,55,318,0,187,293,2,0,80,0,280,280,59,124,297,48,242,276,80,89,0,0,48,6,0,0,293,183,270,0,0,0,0,0,0,0,0,0,0,0,0,0,0,0,0,0,0,0,0,0,0,0,0,0,0,0,0,0,0,0],"split_type":[0,0,0,0,0,0,0,0,0,0,0,0,0,0,0,0,0,0,0,0,0,0,0,0,0,0,0,0,0,0,0,0,0,0,0,0,0,0,0,0,0,0,0,0,0,0,0,0,0,0,0,0,0,0,0,0,0,0,0,0,0,0,0,0,0,0,0,0,0,0,0,0,0,0,0,0,0,0,0],"sum_hessian":[3.9930627E3,3.895025E3,9.803773E1,2.8953867E3,9.9963837E2,8.979872E1,8.239002E0,2.6874302E3,2.0795636E2,9.9264386E2,6.994521E0,7.535348E1,1.4445244E1,6.239818E0,1.9991839E0,2.554055E3,1.3337537E2,2.0570845E2,2.2479055E0,9.437431E2,4.8900734E1,5.2453012E0,1.7492201E0,7.2113144E1,3.2403367E0,1.2457514E1,1.9877292E0,4.991497E0,1.2483209E0,2.383777E3,1.7027776E2,1.2639832E2,6.977043E0,1.9871738E2,6.9910655E0,9.325131E2,1.1229991E1,4.5151566E1,3.7491698E0,3.2494307E0,1.9958706E0,6.587255E1,6.2405944E0,1.9921085E0,1.2482282E0,5.72115E0,6.7363644E0,3.2479768E0,1.7435205E0,2.1930454E3,1.9073166E2,1.600727E2,1.0205074E1,1.11474754E2,1.4923572E1,2.7454338E0,4.2316093E0,1.8173529E2,1.6982088E1,5.7411838E0,1.2498819E0,8.336599E2,9.8853226E1,9.980198E0,1.2497925E0,3.0183275E1,1.4968289E1,2.2492383E0,1.4999313E0,6.112914E1,4.7434087E0,4.24125E0,1.9993442E0,4.2218575E0,1.4992923E0,4.748661E0,1.9877034E0,1.248249E0,1.9997277E0],"tree_param":{"num_deleted":"0","num_feature":"362","num_nodes":"79","size_leaf_vector":"0"}},{"base_weights":[-2.7057566E-4,-5.46324E-3,2.0532165E-2,-9.033157E-3,3.9526217E-2,3.6521003E-2,-1.12135135E-1,-1.0758326E-2,1.2607954E-1,6.1174436E-3,2.5767335E-1,3.0014679E-2,2.008463E-1,-1.6636892E-1,2.9448837E-1,-1.5254311E-2,2.6064292E-2,2.4393079E-1,-1.6204017E-1,5.8719944E-2,-8.9493394E-2,3.004488E-1,-3.5558817E-1,3.4584325E-2,-1.8837698E-1,2.7493182E-1,-8.907555E-2,-1.912127E-1,3.6889467E-1,1.5456585E-2,8.475605E-1,-1.0003902E-2,-7.317906E-2,4.619499E-2,-1.4547925E-1,3.5249454E-1,-1.520736E-1,-4.606463E-2,-6.198857E-1,1.0256199E-1,-2.3158823E-1,-1.2697352E-1,2.325197E-1,3.7013173E-1,-9.501476E-2,4.1942474E-2,-1.1463258E-1,-3.3308315E-1,1.9901888E-1,4.0313524E-1,2.7737858E-2,9.466372E-2,-4.0222555E-1,-1.6255677E-1,-6.845259E-1,6.3844067E-1,-2.2128358E-2,-1.9541475E-1,2.755862E-1,1.1084708E0,2.097783E-1,-2.252831E-2,3.179269E-2,-8.77775E-2,3.0664632E-1,6.516595E-2,-2.0335892E-1,-4.6022084E-2,-5.366327E-1,3.9634338E-1,-1.9824769E-1,6.273953E-4,-2.8315088E-1,6.140172E-2,-4.0425342E-1,7.952986E-2,5.129219E-1,-3.1979167E-1,4.3439138E-1,-1.7596972E-1,1.422361E-1,5.4232925E-1,-9.2482165E-2,4.3009666E-1,-1.7243554E-1,-2.564356E-1,2.3405181E-1,5.0689265E-2,-7.3504426E-2,-2.6590548E-2,-4.2450726E-1,-4.4816655E-1,3.3464376E-2,3.1711504E-1,-2.254052E-2,5.01613E-1,2.559383E-2,9.6867435E-2,-2.0736216E-1,-1.5573514E-2,2.239264E-1,-1.9566834E-1,1.6883706E-1,-4.9921576E-2,-1.0841908E0,-3.8846424E-1,-1.7360651E-3,4.4073936E-1,6.204313E-4],"categories":[],"categories_nodes":[],"categories_segments":[],"categories_sizes":[],"default_left":[1,1,1,1,1,1,1,1,1,1,1,1,1,1,1,1,1,1,1,1,1,1,0,1,1,1,1,1,1,1,1,1,1,1,1,1,1,1,0,1,1,1,1,1,1,1,1,1,1,1,1,1,0,1,1,0,0,1,1,0,0,0,0,0,0,0,0,0,0,0,0,0,0,0,0,0,0,0,0,0,0,0,0,0,0,0,0,0,0,0,0,0,0,0,0,0,0,0,0,0,0,0,0,0,0,0,0,0,0],"id":9,"left_children":[1,3,5,7,9,11,13,15,17,19,21,23,25,27,29,31,33,35,37,39,41,43,-1,45,47,49,51,53,55,57,59,61,63,65,67,69,71,73,-1,75,77,79,81,83,85,87,89,91,93,95,97,99,-1,101,103,-1,-1,105,107,-1,-1,-1,-1,-1,-1,-1,-1,-1,-1,-1,-1,-1,-1,-1,-1,-1,-1,-1,-1,-1,-1,-1,-1,-1,-1,-1,-1,-1,-1,-1,-1,-1,-1,-1,-1,-1,-1,-1,-1,-1,-1,-1,-1,-1,-1,-1,-1,-1,-1],"loss_changes":[4.3146932E-1,5.137221E-1,1.6965427E0,6.9182277E-1,1.712366E0,7.5607777E-1,1.9468892E0,4.8477146E-1,1.3102777E0,1.0360931E0,9.255161E-1,6.919618E-1,6.038345E-1,1.0888021E0,1.6055741E0,7.924496E-1,1.1073903E0,1.2126335E0,5.8022004E-1,1.714293E0,9.122575E-1,8.540456E-1,0E0,7.444024E-1,8.641187E-1,6.773914E-1,3.9739835E-1,9.324846E-1,4.0808773E-1,4.92142E-1,3.496561E-1,1.2531116E0,1.2278953E0,1.3673255E0,1.2869523E0,5.9682345E-1,1.3026375E-1,4.1853142E-1,0E0,1.0564249E0,1.1806407E0,8.9771366E-1,8.535157E-1,9.027753E-1,3.387516E-1,6.52702E-1,8.596531E-1,4.6786487E-1,1.24797955E-1,5.1635385E-1,1.5813723E-1,7.110421E-2,0E0,8.131379E-1,8.949795E-1,0E0,0E0,1.8619767E-1,1.8101525E-1,0E0,0E0,0E0,0E0,0E0,0E0,0E0,0E0,0E0,0E0,0E0,0E0,0E0,0E0,0E0,0E0,0E0,0E0,0E0,0E0,0E0,0E0,0E0,0E0,0E0,0E0,0E0,0E0,0E0,0E0,0E0,0E0,0E0,0E0,0E0,0E0,0E0,0E0,0E0,0E0,0E0,0E0,0E0,0E0,0E0,0E0,0E0,0E0,0E0,0E0],"parents":[2147483647,0,0,1,1,2,2,3,3,4,4,5,5,6,6,7,7,8,8,9,9,10,10,11,11,12,12,13,13,14,14,15,15,16,16,17,17,18,18,19,19,20,20,21,21,23,23,24,24,25,25,26,26,27,27,28,28,29,29,30,30,31,31,32,32,33,33,34,34,35,35,36,36,37,37,39,39,40,40,41,41,42,42,43,43,44,44,45,45,46,46,47,47,48,48,49,49,50,50,51,51,53,53,54,54,57,57,58,58],"right_children":[2,4,6,8,10,12,14,16,18,20,22,24,26,28,30,32,34,36,38,40,42,44,-1,46,48,50,52,54,56,58,60,62,64,66,68,70,72,74,-1,76,78,80,82,84,86,88,90,92,94,96,98,100,-1,102,104,-1,-1,106,108,-1,-1,-1,-1,-1,-1,-1,-1,-1,-1,-1,-1,-1,-1,-1,-1,-1,-1,-1,-1,-1,-1,-1,-1,-1,-1,-1,-1,-1,-1,-1,-1,-1,-1,-1,-1,-1,-1,-1,-1,-1,-1,-1,-1,-1,-1,-1,-1,-1,-1],"split_conditions":[5E-1,5E-1,5E-1,5E-1,5E-1,5E-1,5E-1,5E-1,5E-1,5E-1,5E-1,5E-1,5E-1,5E-1,5E-1,5E-1,5E-1,5E-1,5E-1,5E-1,5E-1,5E-1,-1.0667645E-1,5E-1,5E-1,5E-1,5E-1,5E-1,5E-1,5E-1,5E-1,5E-1,5E-1,5E-1,5E-1,5E-1,5E-1,5E-1,-1.8596572E-1,5E-1,5E-1,5E-1,5E-1,5E-1,5E-1,5E-1,5E-1,5E-1,5E-1,5E-1,5E-1,5E-1,-1.2066767E-1,5E-1,5E-1,1.9153221E-1,-6.638508E-3,5E-1,5E-1,3.3254126E-1,6.293349E-2,-6.758493E-3,9.537807E-3,-2.6333252E-2,9.19939E-2,1.9549787E-2,-6.100768E-2,-1.3806625E-2,-1.6098982E-1,1.1890302E-1,-5.9474308E-2,1.8821859E-4,-8.494527E-2,1.8420517E-2,-1.2127603E-1,2.3858959E-2,1.5387659E-1,-9.5937505E-2,1.3031742E-1,-5.2790917E-2,4.267083E-2,1.6269878E-1,-2.774465E-2,1.29029E-1,-5.1730663E-2,-7.693069E-2,7.0215546E-2,1.520678E-2,-2.2051329E-2,-7.977165E-3,-1.2735218E-1,-1.3444997E-1,1.0039313E-2,9.513452E-2,-6.7621567E-3,1.504839E-1,7.6781493E-3,2.9060232E-2,-6.220865E-2,-4.672054E-3,6.717792E-2,-5.8700506E-2,5.065112E-2,-1.49764735E-2,-3.2525727E-1,-1.1653928E-1,-5.2081957E-4,1.3222182E-1,1.861294E-4],"split_indices":[237,48,66,17,187,141,183,71,293,121,225,309,200,303,121,185,253,61,253,3,265,149,0,294,109,261,224,117,43,270,43,80,27,54,43,254,270,50,0,24,319,330,293,56,305,137,72,6,61,253,187,71,0,19,50,0,0,43,54,0,0,0,0,0,0,0,0,0,0,0,0,0,0,0,0,0,0,0,0,0,0,0,0,0,0,0,0,0,0,0,0,0,0,0,0,0,0,0,0,0,0,0,0,0,0,0,0,0,0],"split_type":[0,0,0,0,0,0,0,0,0,0,0,0,0,0,0,0,0,0,0,0,0,0,0,0,0,0,0,0,0,0,0,0,0,0,0,0,0,0,0,0,0,0,0,0,0,0,0,0,0,0,0,0,0,0,0,0,0,0,0,0,0,0,0,0,0,0,0,0,0,0,0,0,0,0,0,0,0,0,0,0,0,0,0,0,0,0,0,0,0,0,0,0,0,0,0,0,0,0,0,0,0,0,0,0,0,0,0,0,0],"sum_hessian":[3.9922476E3,3.1953735E3,7.96874E2,2.9612012E3,2.3417227E2,7.118123E2,8.506171E1,2.9247769E3,3.642427E1,2.0396371E2,3.0208569E1,6.858397E2,2.597261E1,7.5572945E1,9.488758E0,2.6070464E3,3.1773062E2,2.5959343E1,1.0464928E1,1.3182372E2,7.214E1,2.8715708E1,1.4928616E0,6.7260767E2,1.3232056E1,2.072765E1,5.24496E0,7.283514E1,2.7378082E0,6.990108E0,2.49865E0,2.3914531E3,2.1559317E2,2.8501477E2,3.2715878E1,2.046012E1,5.4992247E0,9.228017E0,1.236911E0,1.1508969E2,1.6734015E1,6.5161354E1,6.9786506E0,2.446831E1,4.247399E0,6.4168396E2,3.0923653E1,9.735644E0,3.4964113E0,1.3233465E1,7.4941845E0,3.7451916E0,1.4997684E0,7.009305E1,2.7420936E0,1.2460899E0,1.4917183E0,3.9979727E0,2.992135E0,1.2494884E0,1.2491616E0,1.8404274E3,5.510257E2,2.0835406E2,7.239109E0,2.6556546E2,1.9449286E1,2.6974762E1,5.7411175E0,1.9210936E1,1.249184E0,2.999783E0,2.4994414E0,7.73568E0,1.4923366E0,1.10103745E2,4.9859495E0,1.5235956E1,1.4980578E0,5.542106E1,9.740293E0,3.2304823E0,3.7481682E0,2.2219849E1,2.2484603E0,2.9976466E0,1.2497523E0,5.9701245E2,4.4671516E1,2.4927132E1,5.996521E0,7.2398953E0,2.495749E0,1.9993995E0,1.4970119E0,1.0235111E1,2.9983537E0,6.2456627E0,1.2485217E0,2.4960456E0,1.2491461E0,6.409817E1,5.994876E0,1.4942968E0,1.2477968E0,1.498563E0,2.4994097E0,1.4926901E0,1.4994451E0],"tree_param":{"num_deleted":"0","num_feature":"362","num_nodes":"109","size_leaf_vector":"0"}},{"base_weights":[-1.9372057E-4,-2.1680798E-3,4.940657E-2,-4.6474547E-3,4.8395112E-2,6.298089E-2,-5.157071E-1,-6.4107627E-3,8.349363E-2,7.4307315E-2,-2.4139583E-1,9.2234336E-2,-1.3547963E-1,-9.856438E-2,-6.814099E-1,-7.758589E-3,9.7854264E-2,2.1997284E-2,2.93693E-1,4.4789597E-2,3.1051975E-1,-4.4706604E-1,-7.549368E-2,1.3992774E-1,-8.541678E-2,-6.361953E-2,-5.552793E-1,-3.361553E-3,-3.601091E-2,2.46398E-1,-1.307961E-1,6.2201742E-2,-9.930187E-1,3.723026E-1,-2.269017E-1,-4.0345103E-3,1.6010831E-1,3.9349484E-1,-3.6952913E-1,-5.9924614E-1,3.5750467E-2,-2.6868966E-1,2.5713268E-1,1.694384E-1,-1.2013645E-1,-1.5085538E-2,-5.830431E-1,-1.0785067E-2,-3.8767293E-1,1.7605108E-4,-5.5000067E-2,-4.113468E-2,5.4584724E-1,3.153476E-1,-1.8856327E-1,-2.9722038E-1,2.4997297E-1,3.161272E-2,5.901795E-1,1.950871E-1,8.2993394E-1,2.8682014E-2,-2.8737792E-1,2.410204E-2,3.9266622E-1,5.7483774E-1,7.643665E-2,-2.9736298E-1,-7.8094894E-1,-4.1293585E-1,3.7402704E-2,3.9293382E-1,1.842868E-2,2.2049123E-1,-1.8679578E-2,5.708047E-2,-7.6074123E-1,7.675827E-2,-2.5154582E-1,5.9574395E-2,-3.4687778E-1],"categories":[],"categories_nodes":[],"categories_segments":[],"categories_sizes":[],"default_left":[1,1,1,1,1,1,1,1,1,1,1,1,1,0,0,1,1,1,1,1,1,1,1,1,1,1,0,1,1,1,1,1,0,1,0,1,1,1,0,1,0,1,1,1,1,1,0,1,0,0,0,0,0,0,0,0,0,0,0,0,0,0,0,0,0,0,0,0,0,0,0,0,0,0,0,0,0,0,0,0,0],"id":10,"left_children":[1,3,5,7,9,11,13,15,17,19,21,23,25,-1,-1,27,29,31,33,35,37,39,41,43,45,47,-1,49,51,53,55,57,-1,59,-1,61,63,65,-1,67,-1,69,71,73,75,77,-1,79,-1,-1,-1,-1,-1,-1,-1,-1,-1,-1,-1,-1,-1,-1,-1,-1,-1,-1,-1,-1,-1,-1,-1,-1,-1,-1,-1,-1,-1,-1,-1,-1,-1],"loss_changes":[3.9106712E-1,4.81679E-1,1.205175E0,5.696539E-1,1.3665799E0,8.843795E-1,1.882276E-1,5.053959E-1,9.2283815E-1,1.140897E0,4.772672E-1,1.125959E0,5.588945E-1,0E0,0E0,4.4038886E-1,1.5912247E0,2.375589E0,7.4707377E-1,8.3615816E-1,1.1740298E0,4.9781144E-1,6.791229E-1,8.187678E-1,9.868597E-1,3.031138E-1,0E0,5.607478E-1,1.4458964E0,9.04328E-1,1.2611703E0,8.773744E-1,0E0,1.0096207E0,0E0,9.8372906E-1,1.3874282E0,9.180412E-1,0E0,4.127884E-2,0E0,3.021751E-1,1.22386396E-1,9.054029E-1,1.313448E0,5.829211E-1,0E0,4.0991724E-1,0E0,0E0,0E0,0E0,0E0,0E0,0E0,0E0,0E0,0E0,0E0,0E0,0E0,0E0,0E0,0E0,0E0,0E0,0E0,0E0,0E0,0E0,0E0,0E0,0E0,0E0,0E0,0E0,0E0,0E0,0E0,0E0,0E0],"parents":[2147483647,0,0,1,1,2,2,3,3,4,4,5,5,6,6,7,7,8,8,9,9,10,10,11,11,12,12,15,15,16,16,17,17,18,18,19,19,20,20,21,21,22,22,23,23,24,24,25,25,27,27,28,28,29,29,30,30,31,31,33,33,35,35,36,36,37,37,39,39,41,41,42,42,43,43,44,44,45,45,47,47],"right_children":[2,4,6,8,10,12,14,16,18,20,22,24,26,-1,-1,28,30,32,34,36,38,40,42,44,46,48,-1,50,52,54,56,58,-1,60,-1,62,64,66,-1,68,-1,70,72,74,76,78,-1,80,-1,-1,-1,-1,-1,-1,-1,-1,-1,-1,-1,-1,-1,-1,-1,-1,-1,-1,-1,-1,-1,-1,-1,-1,-1,-1,-1,-1,-1,-1,-1,-1,-1],"split_conditions":[5E-1,5E-1,5E-1,5E-1,5E-1,5E-1,5E-1,5E-1,5E-1,5E-1,5E-1,5E-1,5E-1,-2.9569315E-2,-2.0442298E-1,5E-1,5E-1,5E-1,5E-1,5E-1,5E-1,5E-1,5E-1,5E-1,5E-1,5E-1,-1.665838E-1,5E-1,5E-1,5E-1,5E-1,5E-1,-2.9790562E-1,5E-1,-6.807051E-2,5E-1,5E-1,5E-1,-1.10858746E-1,5E-1,1.0725141E-2,5E-1,5E-1,5E-1,5E-1,5E-1,-1.7491293E-1,5E-1,-1.1630189E-1,5.2815325E-5,-1.650002E-2,-1.2340405E-2,1.6375418E-1,9.460429E-2,-5.6568984E-2,-8.916612E-2,7.49919E-2,9.483816E-3,1.7705385E-1,5.8526132E-2,2.489802E-1,8.604605E-3,-8.621338E-2,7.230612E-3,1.1779987E-1,1.7245133E-1,2.2930995E-2,-8.92089E-2,-2.3428468E-1,-1.2388076E-1,1.1220812E-2,1.1788015E-1,5.528604E-3,6.614737E-2,-5.6038736E-3,1.7124142E-2,-2.2822239E-1,2.3027483E-2,-7.546375E-2,1.7872319E-2,-1.0406334E-1],"split_indices":[94,186,24,263,307,253,305,18,121,54,261,224,6,0,0,149,302,47,320,293,62,302,89,330,243,200,0,323,95,111,44,300,0,290,0,252,124,242,0,80,0,71,2,90,236,247,0,326,0,0,0,0,0,0,0,0,0,0,0,0,0,0,0,0,0,0,0,0,0,0,0,0,0,0,0,0,0,0,0,0,0],"split_type":[0,0,0,0,0,0,0,0,0,0,0,0,0,0,0,0,0,0,0,0,0,0,0,0,0,0,0,0,0,0,0,0,0,0,0,0,0,0,0,0,0,0,0,0,0,0,0,0,0,0,0,0,0,0,0,0,0,0,0,0,0,0,0,0,0,0,0,0,0,0,0,0,0,0,0,0,0,0,0,0,0],"sum_hessian":[3.9912883E3,3.839415E3,1.5187317E2,3.6608147E3,1.7860059E2,1.4917838E2,2.6947901E0,3.5899236E3,7.089101E1,1.6462401E2,1.397658E1,1.3048056E2,1.869782E1,1.219537E0,1.4752531E0,3.545023E3,4.490066E1,5.5699963E1,1.5191041E1,1.4739479E2,1.7229216E1,5.4836717E0,8.4929085E0,1.0303219E2,2.7448368E1,1.6948221E1,1.7496002E0,3.0685671E3,4.764559E2,2.7171171E1,1.772949E1,5.4480717E1,1.2192452E0,1.344561E1,1.7454305E0,1.0423034E2,4.316445E1,1.57311735E1,1.4980415E0,3.9861276E0,1.4975438E0,5.4940643E0,2.9988441E0,9.284511E1,1.0187079E1,2.4952114E1,2.496253E0,1.5460744E1,1.4874762E0,2.8727593E3,1.9580779E2,4.732181E2,3.2377968E0,2.3690737E1,3.4804327E0,1.2489902E1,5.2395897E0,5.2499E1,1.981717E0,1.0720462E1,2.7251487E0,9.424681E1,9.983526E0,2.7932432E1,1.5232018E1,9.490183E0,6.2409906E0,2.4884024E0,1.4977254E0,3.4970307E0,1.9970338E0,1.4995956E0,1.4992485E0,7.289126E1,1.995385E1,8.693113E0,1.4939668E0,1.8458149E1,6.4939647E0,1.3464713E1,1.9960314E0],"tree_param":{"num_deleted":"0","num_feature":"362","num_nodes":"81","size_leaf_vector":"0"}},{"base_weights":[-3.5032767E-4,-4.9784444E-3,2.1127319E-2,-8.455528E-3,4.533409E-2,3.6050763E-2,-9.302909E-2,-6.9271005E-3,-9.915937E-2,-2.6415423E-3,1.6911128E-1,4.426674E-2,-1.401128E-1,-1.49987E-1,4.7353983E-1,-2.0795038E-3,-3.8156692E-2,-4.368642E-2,-3.716976E-1,1.3667976E-2,-4.680558E-1,1.3344228E-1,7.45212E-1,6.75189E-2,-3.694832E-2,-5.5157408E-2,-9.079331E-1,-1.843453E-1,6.105046E-1,6.9403577E-1,7.640195E-3,-4.4349143E-3,1.3160847E-1,-3.1143695E-2,-4.370556E-1,-8.561702E-2,4.2347288E-1,-5.293315E-1,-6.1997846E-2,3.7035833E-3,5.461703E-1,-6.399509E-1,-2.3070872E-2,1.711829E-1,-2.7233163E-1,5.928519E-2,3.45416E-1,-1.5898144E-1,6.0527407E-2,5.0424274E-2,-4.0528336E-1,-2.5533733E-1,5.0796E-2,7.3409814E-1,2.1582909E-1,8.7601143E-1,2.1016257E-1,-1.0775154E-2,4.729981E-2,8.439939E-2,4.7766215E-1,-2.5293218E-2,-3.5688427E-1,-4.9313992E-1,-9.704243E-2,-5.09225E-2,-5.4523164E-1,-7.2088134E-1,-1.7422293E-1,-2.480861E-1,1.9234073E-1,1.2656134E-2,-4.773058E-1,-7.895497E-1,-1.8902421E-1,1.4138214E-1,6.203969E-1,-4.422861E-1,2.5477791E-3,7.3151715E-2,-1.2189403E-1,4.488389E-1,-2.121997E-1,-1.1779924E-1,-7.0629406E-1,8.246733E-2,-4.5121518E-1,-9.473541E-3,5.672861E-1,-6.0226715E-1,2.1115254E-1,-2.9834133E-1,1.955019E-1,1.1427935E-1,-3.821149E-1],"categories":[],"categories_nodes":[],"categories_segments":[],"categories_sizes":[],"default_left":[1,1,1,1,1,1,1,1,1,1,1,1,1,1,1,1,1,1,1,1,1,1,0,1,1,1,0,1,1,1,0,1,1,1,1,1,0,1,1,1,0,1,0,1,1,1,1,1,1,1,1,1,1,0,0,0,0,0,0,0,0,0,0,0,0,0,0,0,0,0,0,0,0,0,0,0,0,0,0,0,0,0,0,0,0,0,0,0,0,0,0,0,0,0,0],"id":11,"left_children":[1,3,5,7,9,11,13,15,17,19,21,23,25,27,29,31,33,35,37,39,41,43,-1,45,47,49,-1,51,53,55,-1,57,59,61,63,65,-1,67,69,71,-1,73,-1,75,77,79,81,83,85,87,89,91,93,-1,-1,-1,-1,-1,-1,-1,-1,-1,-1,-1,-1,-1,-1,-1,-1,-1,-1,-1,-1,-1,-1,-1,-1,-1,-1,-1,-1,-1,-1,-1,-1,-1,-1,-1,-1,-1,-1,-1,-1,-1,-1],"loss_changes":[3.9684555E-1,5.749812E-1,1.2091382E0,4.2534298E-1,1.2621932E0,9.132234E-1,2.7207294E0,4.5759827E-1,7.5253665E-1,1.1761982E0,1.1204717E0,1.1346238E0,1.7871231E0,2.0818481E0,7.899262E-1,8.2497776E-1,1.1226165E0,8.8606304E-1,3.805107E-1,7.9316545E-1,3.8650715E-1,9.2141104E-1,0E0,1.0467601E0,1.6045907E0,9.972354E-1,0E0,1.2295365E0,1.1789918E-2,2.7757502E-1,0E0,8.447031E-1,7.007337E-1,7.536898E-1,8.449733E-2,6.2031776E-1,0E0,2.4702847E-1,2.3648845E-1,6.438761E-1,0E0,1.03508115E-1,0E0,6.2013745E-1,2.4624291E-1,1.1500418E0,8.5733616E-1,1.2650598E0,8.822741E-1,6.614228E-1,8.8399017E-1,1.1468346E0,5.3105706E-1,0E0,0E0,0E0,0E0,0E0,0E0,0E0,0E0,0E0,0E0,0E0,0E0,0E0,0E0,0E0,0E0,0E0,0E0,0E0,0E0,0E0,0E0,0E0,0E0,0E0,0E0,0E0,0E0,0E0,0E0,0E0,0E0,0E0,0E0,0E0,0E0,0E0,0E0,0E0,0E0,0E0,0E0],"parents":[2147483647,0,0,1,1,2,2,3,3,4,4,5,5,6,6,7,7,8,8,9,9,10,10,11,11,12,12,13,13,14,14,15,15,16,16,17,17,18,18,19,19,20,20,21,21,23,23,24,24,25,25,27,27,28,28,29,29,31,31,32,32,33,33,34,34,35,35,37,37,38,38,39,39,41,41,43,43,44,44,45,45,46,46,47,47,48,48,49,49,50,50,51,51,52,52],"right_children":[2,4,6,8,10,12,14,16,18,20,22,24,26,28,30,32,34,36,38,40,42,44,-1,46,48,50,-1,52,54,56,-1,58,60,62,64,66,-1,68,70,72,-1,74,-1,76,78,80,82,84,86,88,90,92,94,-1,-1,-1,-1,-1,-1,-1,-1,-1,-1,-1,-1,-1,-1,-1,-1,-1,-1,-1,-1,-1,-1,-1,-1,-1,-1,-1,-1,-1,-1,-1,-1,-1,-1,-1,-1,-1,-1,-1,-1,-1,-1],"split_conditions":[5E-1,5E-1,5E-1,5E-1,5E-1,5E-1,5E-1,5E-1,5E-1,5E-1,5E-1,5E-1,5E-1,5E-1,5E-1,5E-1,5E-1,5E-1,5E-1,5E-1,5E-1,5E-1,2.2356361E-1,5E-1,5E-1,5E-1,-2.7237993E-1,5E-1,5E-1,5E-1,2.2920587E-3,5E-1,5E-1,5E-1,5E-1,5E-1,1.2704188E-1,5E-1,5E-1,5E-1,1.638511E-1,5E-1,-6.921262E-3,5E-1,5E-1,5E-1,5E-1,5E-1,5E-1,5E-1,5E-1,5E-1,5E-1,2.2022945E-1,6.474873E-2,2.6280344E-1,6.304877E-2,-3.2325464E-3,1.4189944E-2,2.5319817E-2,1.4329866E-1,-7.5879656E-3,-1.0706528E-1,-1.4794198E-1,-2.9112728E-2,-1.52767515E-2,-1.635695E-1,-2.1626441E-1,-5.226688E-2,-7.442583E-2,5.770222E-2,3.7968403E-3,-1.4319174E-1,-2.3686492E-1,-5.6707267E-2,4.2414643E-2,1.8611908E-1,-1.3268584E-1,7.6433376E-4,2.1945516E-2,-3.656821E-2,1.3465168E-1,-6.3659914E-2,-3.5339773E-2,-2.1188822E-1,2.47402E-2,-1.3536456E-1,-2.8420624E-3,1.7018583E-1,-1.8068016E-1,6.334577E-2,-8.95024E-2,5.865057E-2,3.4283806E-2,-1.1463447E-1],"split_indices":[183,258,312,93,302,258,247,247,124,10,86,318,313,299,56,12,308,295,112,269,49,238,0,82,303,261,0,56,43,89,0,54,229,226,131,326,0,290,27,323,0,109,0,236,19,317,6,116,97,186,224,62,4,0,0,0,0,0,0,0,0,0,0,0,0,0,0,0,0,0,0,0,0,0,0,0,0,0,0,0,0,0,0,0,0,0,0,0,0,0,0,0,0,0,0],"split_type":[0,0,0,0,0,0,0,0,0,0,0,0,0,0,0,0,0,0,0,0,0,0,0,0,0,0,0,0,0,0,0,0,0,0,0,0,0,0,0,0,0,0,0,0,0,0,0,0,0,0,0,0,0,0,0,0,0,0,0,0,0,0,0,0,0,0,0,0,0,0,0,0,0,0,0,0,0,0,0,0,0,0,0,0,0,0,0,0,0,0,0,0,0,0,0],"sum_hessian":[3.9903093E3,3.2835261E3,7.067833E2,3.0720496E3,2.1147644E2,6.256744E2,8.110898E1,3.0221997E3,4.9849945E1,1.5311012E2,5.836632E1,5.985096E2,2.7164785E1,7.436794E1,6.7410355E0,2.617038E3,4.051617E2,4.2383434E1,7.4665103E0,1.488641E2,4.246014E0,5.612312E1,2.2432048E0,4.6542532E2,1.3308426E2,2.5423628E1,1.7411581E0,7.187815E1,2.4897907E0,4.243194E0,2.4978414E0,2.5726775E3,4.436045E1,3.9922113E2,5.940588E0,3.9642033E1,2.7414036E0,4.4780526E0,2.988458E0,1.4711813E2,1.7459772E0,2.7468007E0,1.4992133E0,5.187629E1,4.2468286E0,4.5321063E2,1.2214664E1,5.8817577E1,7.426668E1,2.0190958E1,5.23267E0,5.5143707E1,1.6734446E1,1.2411253E0,1.2486653E0,2.4946046E0,1.7485893E0,2.292515E3,2.801626E2,4.0129784E1,4.230665E0,3.9323605E2,5.985085E0,4.712858E0,1.2277296E0,3.789247E1,1.7495614E0,2.2398303E0,2.2382224E0,1.7399771E0,1.2484807E0,1.453859E2,1.7322351E0,1.4986583E0,1.2481424E0,4.988187E1,1.9944196E0,2.247938E0,1.9988905E0,4.215441E2,3.1666557E1,1.0468172E1,1.7464925E0,5.583178E1,2.9857957E0,7.201791E1,2.2487714E0,1.8973803E1,1.217155E0,3.9829063E0,1.2497636E0,5.0650574E1,4.4931326E0,1.5236186E1,1.498259E0],"tree_param":{"num_deleted":"0","num_feature":"362","num_nodes":"95","size_leaf_vector":"0"}},{"base_weights":[-3.5662856E-4,-2.2876542E-3,4.6239376E-2,-3.7811445E-3,5.4453682E-2,3.5244018E-2,4.781019E-1,-7.936694E-4,-4.063287E-2,7.330573E-2,-5.740481E-1,5.1373594E-2,-2.198795E-1,-3.083538E-3,6.1532892E-2,-6.165166E-2,2.995877E-1,1.2567317E-1,-9.282565E-2,3.1593647E-2,3.5625243E-1,-3.0996478E-1,1.16177045E-1,1.1877252E-3,-3.2237392E-2,3.875485E-2,4.627959E-1,-9.848339E-2,1.3906656E-1,3.93676E-1,-3.8393483E-1,1.6138007E-1,-1.11677445E-1,-1.6366975E-1,2.9723012E-1,-5.7638185E-3,1.7851089E-1,5.633566E-1,-3.9861417E-1,-4.00515E-1,4.024917E-2,2.8465986E-3,-1.2702206E-1,-3.711407E-2,5.6775457E-1,6.957557E-2,-2.2041383E-1,6.520443E-1,2.4172531E-2,-1.354797E-1,6.032672E-2,9.689554E-2,7.60274E-1,4.798005E-1,-1.6374396E-1,1.8128154E-1,-3.071375E-1,1.4268023E-1,-3.1552652E-1,-2.1689665E-1,1.890206E-1,5.4447565E-2,-1.4076188E-1,8.201153E-2,5.089991E-1,7.2215503E-1,-3.817812E-2,-1.2835805E-1,-5.775374E-1],"categories":[],"categories_nodes":[],"categories_segments":[],"categories_sizes":[],"default_left":[1,1,1,1,1,1,0,1,1,1,0,1,1,1,1,1,1,1,1,1,1,1,0,1,1,1,1,1,1,1,0,1,1,1,0,1,1,1,0,1,0,0,0,0,0,0,0,0,0,0,0,0,0,0,0,0,0,0,0,0,0,0,0,0,0,0,0,0,0],"id":12,"left_children":[1,3,5,7,9,11,-1,13,15,17,-1,19,21,23,25,27,29,31,33,35,37,39,-1,41,43,45,47,49,51,53,-1,55,57,59,-1,61,63,65,-1,67,-1,-1,-1,-1,-1,-1,-1,-1,-1,-1,-1,-1,-1,-1,-1,-1,-1,-1,-1,-1,-1,-1,-1,-1,-1,-1,-1,-1,-1],"loss_changes":[3.591562E-1,3.2498917E-1,7.373849E-1,4.1119257E-1,1.2074491E0,6.531303E-1,0E0,4.9345025E-1,2.021319E0,8.5014105E-1,0E0,8.782959E-1,3.22523E-1,4.1527823E-1,1.1019533E0,1.9699161E0,1.2101696E0,6.4266694E-1,7.0283407E-1,7.6732314E-1,1.6143459E0,2.6144397E-1,0E0,6.191587E-1,1.2679842E0,9.5019174E-1,5.229902E-1,1.3252547E0,1.0119914E0,7.971585E-1,0E0,6.568539E-1,5.754011E-1,4.2921525E-1,0E0,9.203508E-1,8.619412E-1,7.3350453E-1,0E0,2.2640395E-1,0E0,0E0,0E0,0E0,0E0,0E0,0E0,0E0,0E0,0E0,0E0,0E0,0E0,0E0,0E0,0E0,0E0,0E0,0E0,0E0,0E0,0E0,0E0,0E0,0E0,0E0,0E0,0E0,0E0],"parents":[2147483647,0,0,1,1,2,2,3,3,4,4,5,5,7,7,8,8,9,9,11,11,12,12,13,13,14,14,15,15,16,16,17,17,18,18,19,19,20,20,21,21,23,23,24,24,25,25,26,26,27,27,28,28,29,29,31,31,32,32,33,33,35,35,36,36,37,37,39,39],"right_children":[2,4,6,8,10,12,-1,14,16,18,-1,20,22,24,26,28,30,32,34,36,38,40,-1,42,44,46,48,50,52,54,-1,56,58,60,-1,62,64,66,-1,68,-1,-1,-1,-1,-1,-1,-1,-1,-1,-1,-1,-1,-1,-1,-1,-1,-1,-1,-1,-1,-1,-1,-1,-1,-1,-1,-1,-1,-1],"split_conditions":[5E-1,5E-1,5E-1,5E-1,5E-1,5E-1,1.4343058E-1,5E-1,5E-1,5E-1,-1.7221443E-1,5E-1,5E-1,5E-1,5E-1,5E-1,5E-1,5E-1,5E-1,5E-1,5E-1,5E-1,3.4853116E-2,5E-1,5E-1,5E-1,5E-1,5E-1,5E-1,5E-1,-1.15180455E-1,5E-1,5E-1,5E-1,8.916904E-2,5E-1,5E-1,5E-1,-1.19584255E-1,5E-1,1.2074751E-2,8.539796E-4,-3.810662E-2,-1.1134221E-2,1.7032638E-1,2.0872671E-2,-6.6124156E-2,1.956133E-1,7.2517595E-3,-4.064391E-2,1.8098017E-2,2.9068662E-2,2.2808221E-1,1.4394015E-1,-4.912319E-2,5.4384463E-2,-9.214125E-2,4.280407E-2,-9.465796E-2,-6.5069E-2,5.6706183E-2,1.6334271E-2,-4.2228565E-2,2.460346E-2,1.5269974E-1,2.1664652E-1,-1.1453437E-2,-3.8507417E-2,-1.7326123E-1],"split_indices":[46,139,271,229,131,227,0,257,47,148,0,78,280,230,213,54,323,297,240,293,326,236,0,188,279,97,19,50,266,273,0,294,5,278,0,305,125,300,0,121,0,0,0,0,0,0,0,0,0,0,0,0,0,0,0,0,0,0,0,0,0,0,0,0,0,0,0,0,0],"split_type":[0,0,0,0,0,0,0,0,0,0,0,0,0,0,0,0,0,0,0,0,0,0,0,0,0,0,0,0,0,0,0,0,0,0,0,0,0,0,0,0,0,0,0,0,0,0,0,0,0,0,0,0,0,0,0,0,0,0,0,0,0,0,0,0,0,0,0,0,0],"sum_hessian":[3.9894211E3,3.831584E3,1.5783711E2,3.7342285E3,9.735537E1,1.5497305E2,2.8640532E0,3.45515E3,2.790786E2,9.537785E1,1.9775152E0,1.46509E2,8.464048E0,3.3336238E3,1.2152632E2,2.636115E2,1.5467099E1,7.270388E1,2.2673971E1,1.3861928E2,7.8897233E0,6.735998E0,1.72805E0,2.9084697E3,4.251539E2,1.1603602E2,5.490302E0,2.2316936E2,4.044217E1,1.3968372E1,1.4987274E0,6.3474842E1,9.229043E0,1.9679977E1,2.993993E0,1.112834E2,2.7335882E1,6.3902135E0,1.4995097E0,5.238038E0,1.49796E0,2.872284E3,3.6185944E1,4.2265674E2,2.497171E0,1.0435725E2,1.1678774E1,3.4955451E0,1.9947568E0,1.8112216E2,4.20472E1,3.8953747E1,1.4884188E0,1.2219621E1,1.748751E0,6.1476543E1,1.9982979E0,4.239354E0,4.989689E0,1.7433928E1,2.2460506E0,7.737122E1,3.3912178E1,2.2124031E1,5.21185E0,4.8969517E0,1.4932618E0,2.7441838E0,2.4938543E0],"tree_param":{"num_deleted":"0","num_feature":"362","num_nodes":"69","size_leaf_vector":"0"}},{"base_weights":[-1.1122736E-4,-4.654683E-3,1.7141256E-2,-6.7280815E-4,-4.67372E-2,1.2172447E-2,2.212608E-1,-4.5973156E-3,3.9164342E-2,-2.1302948E-2,-3.1112823E-1,1.4589555E-2,-3.5610324E-1,3.2210574E-1,-7.976841E-2,-1.0265606E-2,4.144722E-2,5.914684E-2,-2.2795038E-1,-1.3696023E-2,-7.722296E-1,-2.2764158E-1,-1.0180681E0,1.8302737E-2,-2.3950684E-1,-6.098041E-1,1.0176788E-2,4.206327E-1,-1.6447306E-1,1.6114494E-2,-2.3600924E-1,-1.6018815E-2,5.4548636E-2,4.7027476E-2,-5.586256E-1,4.386688E-2,7.080046E-1,-8.264448E-2,-6.531286E-1,-3.1838946E-2,2.0768124E-1,-3.4688854E-1,1.0592481E-1,3.567276E-2,-2.9565817E-2,-4.6743226E-1,3.7074745E-1,5.3364426E-1,-1.834636E-1,2.7357625E-2,-3.820901E-3,-1.8715322E-2,1.4100605E-1,2.7376607E-2,2.600415E-1,6.25029E-2,-1.550501E-1,3.2619465E-2,5.1277137E-1,8.014918E-1,2.1690008E-1,1.7916095E-2,-6.492159E-1,-7.521065E-1,-2.1983753E-1,-4.2861007E-2,4.5179978E-1,2.9388115E-1,-1.1307123E-1,-2.0927657E-1,-7.128125E-1,2.2320479E-1,-2.2706458E-1,4.194327E-2,-2.344094E-1,-5.750053E-3,-3.1323436E-1,-5.738208E-1,3.8637474E-2,6.227806E-1,-1.865938E-2],"categories":[],"categories_nodes":[],"categories_segments":[],"categories_sizes":[],"default_left":[1,1,1,1,1,1,1,1,1,1,1,1,1,1,1,1,1,1,1,1,0,1,0,1,1,0,0,1,0,1,0,1,1,1,0,1,1,1,1,1,1,1,1,1,1,1,0,1,0,0,0,0,0,0,0,0,0,0,0,0,0,0,0,0,0,0,0,0,0,0,0,0,0,0,0,0,0,0,0,0,0],"id":13,"left_children":[1,3,5,7,9,11,13,15,17,19,21,23,25,27,29,31,33,35,37,39,-1,41,-1,43,45,-1,-1,47,-1,49,-1,51,53,55,-1,57,59,61,63,65,67,69,71,73,75,77,-1,79,-1,-1,-1,-1,-1,-1,-1,-1,-1,-1,-1,-1,-1,-1,-1,-1,-1,-1,-1,-1,-1,-1,-1,-1,-1,-1,-1,-1,-1,-1,-1,-1,-1],"loss_changes":[3.128006E-1,5.2925694E-1,8.409874E-1,4.5148024E-1,1.8293514E0,7.290152E-1,6.240304E-1,6.864895E-1,1.3957982E0,1.4182744E0,1.178021E0,7.674832E-1,5.025584E-1,7.8649676E-1,8.990434E-2,8.7393284E-1,9.917556E-1,2.365726E0,1.0723646E0,1.0052894E0,0E0,9.377459E-1,0E0,6.646334E-1,1.8034437E0,0E0,0E0,9.6656704E-1,0E0,1.1126415E-3,0E0,9.1350603E-1,1.0599775E0,9.059388E-1,0E0,1.2345161E0,7.848096E-2,8.5101116E-1,2.7592778E-2,1.2490535E0,5.5765164E-1,7.0284986E-1,3.1355783E-1,1.0023127E0,1.4374264E0,5.053966E-1,0E0,5.5190325E-1,0E0,0E0,0E0,0E0,0E0,0E0,0E0,0E0,0E0,0E0,0E0,0E0,0E0,0E0,0E0,0E0,0E0,0E0,0E0,0E0,0E0,0E0,0E0,0E0,0E0,0E0,0E0,0E0,0E0,0E0,0E0,0E0,0E0],"parents":[2147483647,0,0,1,1,2,2,3,3,4,4,5,5,6,6,7,7,8,8,9,9,10,10,11,11,12,12,13,13,14,14,15,15,16,16,17,17,18,18,19,19,21,21,23,23,24,24,27,27,29,29,31,31,32,32,33,33,35,35,36,36,37,37,38,38,39,39,40,40,41,41,42,42,43,43,44,44,45,45,47,47],"right_children":[2,4,6,8,10,12,14,16,18,20,22,24,26,28,30,32,34,36,38,40,-1,42,-1,44,46,-1,-1,48,-1,50,-1,52,54,56,-1,58,60,62,64,66,68,70,72,74,76,78,-1,80,-1,-1,-1,-1,-1,-1,-1,-1,-1,-1,-1,-1,-1,-1,-1,-1,-1,-1,-1,-1,-1,-1,-1,-1,-1,-1,-1,-1,-1,-1,-1,-1,-1],"split_conditions":[5E-1,5E-1,5E-1,5E-1,5E-1,5E-1,5E-1,5E-1,5E-1,5E-1,5E-1,5E-1,5E-1,5E-1,5E-1,5E-1,5E-1,5E-1,5E-1,5E-1,-2.3166889E-1,5E-1,-3.0542043E-1,5E-1,5E-1,-1.8294123E-1,3.0530365E-3,5E-1,-4.934192E-2,5E-1,-7.080278E-2,5E-1,5E-1,5E-1,-1.6758768E-1,5E-1,5E-1,5E-1,5E-1,5E-1,5E-1,5E-1,5E-1,5E-1,5E-1,5E-1,1.1122424E-1,5E-1,-5.503908E-2,8.207288E-3,-1.1462703E-3,-5.614597E-3,4.230182E-2,8.212983E-3,7.801245E-2,1.875087E-2,-4.6515033E-2,9.78584E-3,1.5383142E-1,2.4044755E-1,6.5070026E-2,5.3748284E-3,-1.9476478E-1,-2.2563195E-1,-6.5951265E-2,-1.2858302E-2,1.3553993E-1,8.8164344E-2,-3.3921372E-2,-6.278297E-2,-2.1384375E-1,6.696144E-2,-6.811938E-2,1.2582982E-2,-7.032283E-2,-1.725016E-3,-9.397031E-2,-1.7214626E-1,1.1591243E-2,1.8683419E-1,-5.597814E-3],"split_indices":[290,243,141,62,195,325,124,71,267,198,247,79,43,297,184,48,128,36,43,235,0,308,0,261,125,0,0,32,0,89,0,10,240,24,0,275,299,275,118,228,273,6,125,10,61,48,0,184,0,0,0,0,0,0,0,0,0,0,0,0,0,0,0,0,0,0,0,0,0,0,0,0,0,0,0,0,0,0,0,0,0],"split_type":[0,0,0,0,0,0,0,0,0,0,0,0,0,0,0,0,0,0,0,0,0,0,0,0,0,0,0,0,0,0,0,0,0,0,0,0,0,0,0,0,0,0,0,0,0,0,0,0,0,0,0,0,0,0,0,0,0,0,0,0,0,0,0,0,0,0,0,0,0,0,0,0,0,0,0,0,0,0,0,0,0],"sum_hessian":[3.9885034E3,3.1576611E3,8.3084235E2,2.8856362E3,2.7202478E2,8.1213257E2,1.8709824E1,2.6276602E3,2.5797607E2,2.4913838E2,2.2886385E1,8.0779114E2,4.3414006E0,1.39623995E1,4.747425E0,2.3403318E3,2.873284E2,2.4074486E2,1.723123E1,2.4764793E2,1.4904467E0,2.165145E1,1.2349361E0,7.970713E2,1.0719859E1,2.172074E0,2.1693265E0,1.1723955E1,2.2384439E0,3.4977586E0,1.2496666E0,2.1502212E3,1.9011063E2,2.855942E2,1.7341952E0,2.3624902E2,4.495826E0,1.3732488E1,3.4987419E0,2.296807E2,1.7967249E1,1.5920187E1,5.7312617E0,5.850349E2,2.1203639E2,7.9752135E0,2.7446458E0,9.974581E0,1.7493749E0,1.9983935E0,1.4993651E0,2.114786E3,3.5435307E1,1.6890923E2,2.1201403E1,2.659203E2,1.9673903E1,2.3175948E2,4.489551E0,3.2459114E0,1.2499143E0,1.2484921E1,1.2475666E0,2.2491605E0,1.2495813E0,2.25454E2,4.2266893E0,1.4227489E1,3.7397587E0,1.2711661E1,3.208526E0,4.482281E0,1.2489806E0,5.725858E2,1.2449044E1,1.9655466E2,1.5481732E1,6.4792385E0,1.495975E0,8.47861E0,1.4959699E0],"tree_param":{"num_deleted":"0","num_feature":"362","num_nodes":"81","size_leaf_vector":"0"}},{"base_weights":[-3.5453623E-4,9.479707E-4,-5.4350596E-2,-2.286301E-3,3.2014873E-2,-8.308096E-2,2.4610282E-1,-3.3671819E-3,1.2762138E-1,4.235713E-2,-4.889817E-1,-1.0220866E-1,4.396123E-1,3.4837624E-1,-1.915065E-1,2.603804E-3,-2.4608739E-2,2.0213231E-1,-2.5095206E-1,5.09172E-2,-2.8964975E-1,-6.6058654E-1,-2.5302267E-2,-7.087093E-2,-4.8473698E-1,5.0160944E-1,-8.7452546E-2,4.4607967E-3,-1.4447947E-1,-6.5014027E-3,-1.5281165E-1,2.4754407E-1,-1.7798907E-1,1.0207023E-2,-6.0482466E-1,6.759194E-2,-1.1607995E-1,-9.462941E-2,-6.630087E-1,-9.22059E-1,-2.0935142E-3,-3.564668E-2,-3.5540777E-1,-6.451711E-1,1.1535793E-2,8.514535E-1,1.10570796E-1,1.3760093E-3,7.988497E-2,-2.2184697E-1,1.8788908E-1,8.5774455E-3,-1.1734908E-1,-1.30806E-1,-1.0118364E0,2.8271073E-1,-1.9759014E-1,-4.8060343E-3,2.114218E-2,6.1905988E-2,6.530577E-1,-3.8821883E-2,-4.193749E-1,-1.8659122E-1,1.9406404E-1,-1.2038195E-2,-4.7119755E-1,-6.2172943E-1,-1.530534E-1,-7.680729E-1,-1.6664381E-1,2.5070176E-1,-5.9578158E-2],"categories":[],"categories_nodes":[],"categories_segments":[],"categories_sizes":[],"default_left":[1,1,1,1,1,1,1,1,1,1,1,1,0,1,0,1,1,1,1,1,1,1,0,1,1,1,0,1,1,1,1,1,0,1,0,1,1,1,0,0,0,1,1,1,0,0,1,0,0,0,0,0,0,0,0,0,0,0,0,0,0,0,0,0,0,0,0,0,0,0,0,0,0],"id":14,"left_children":[1,3,5,7,9,11,13,15,17,19,21,23,-1,25,-1,27,29,31,33,35,37,39,-1,41,43,45,-1,47,49,51,53,55,-1,57,-1,59,61,63,-1,-1,-1,65,67,69,-1,-1,71,-1,-1,-1,-1,-1,-1,-1,-1,-1,-1,-1,-1,-1,-1,-1,-1,-1,-1,-1,-1,-1,-1,-1,-1,-1,-1],"loss_changes":[2.8056693E-1,3.9149663E-1,8.3155394E-1,4.9598143E-1,2.0002737E0,9.0985554E-1,4.4505095E-1,4.4411314E-1,8.729191E-1,1.041143E0,5.586258E-1,9.7581106E-1,0E0,5.251528E-1,0E0,7.4732167E-1,1.7825428E0,4.7402382E-1,4.9039602E-1,9.906132E-1,6.090999E-1,8.99878E-1,0E0,7.7969956E-1,5.018345E-1,6.555935E-1,0E0,6.282412E-1,9.1892064E-1,1.1279984E0,1.6642244E0,4.107076E-1,0E0,7.5797725E-4,0E0,1.0298785E0,7.43114E-1,2.2809294E-1,0E0,0E0,0E0,7.291374E-1,3.681686E-1,1.4901257E-1,0E0,0E0,1.0404064E-1,0E0,0E0,0E0,0E0,0E0,0E0,0E0,0E0,0E0,0E0,0E0,0E0,0E0,0E0,0E0,0E0,0E0,0E0,0E0,0E0,0E0,0E0,0E0,0E0,0E0,0E0],"parents":[2147483647,0,0,1,1,2,2,3,3,4,4,5,5,6,6,7,7,8,8,9,9,10,10,11,11,13,13,15,15,16,16,17,17,18,18,19,19,20,20,21,21,23,23,24,24,25,25,27,27,28,28,29,29,30,30,31,31,33,33,35,35,36,36,37,37,41,41,42,42,43,43,46,46],"right_children":[2,4,6,8,10,12,14,16,18,20,22,24,-1,26,-1,28,30,32,34,36,38,40,-1,42,44,46,-1,48,50,52,54,56,-1,58,-1,60,62,64,-1,-1,-1,66,68,70,-1,-1,72,-1,-1,-1,-1,-1,-1,-1,-1,-1,-1,-1,-1,-1,-1,-1,-1,-1,-1,-1,-1,-1,-1,-1,-1,-1,-1],"split_conditions":[5E-1,5E-1,5E-1,5E-1,5E-1,5E-1,5E-1,5E-1,5E-1,5E-1,5E-1,5E-1,1.318837E-1,5E-1,-5.7451952E-2,5E-1,5E-1,5E-1,5E-1,5E-1,5E-1,5E-1,-7.5906804E-3,5E-1,5E-1,5E-1,-2.6235765E-2,5E-1,5E-1,5E-1,5E-1,5E-1,-5.339672E-2,5E-1,-1.814474E-1,5E-1,5E-1,5E-1,-1.9890262E-1,-2.766177E-1,-6.2805426E-4,5E-1,5E-1,5E-1,3.4607379E-3,2.5543606E-1,5E-1,4.1280282E-4,2.3965491E-2,-6.655409E-2,5.6366727E-2,2.5732338E-3,-3.5204727E-2,-3.9241802E-2,-3.0355093E-1,8.481322E-2,-5.9277046E-2,-1.4418103E-3,6.342654E-3,1.8571798E-2,1.9591732E-1,-1.1646565E-2,-1.2581249E-1,-5.597737E-2,5.8219213E-2,-3.6114585E-3,-1.4135927E-1,-1.8651883E-1,-4.591602E-2,-2.3042189E-1,-4.9993146E-2,7.521053E-2,-1.7873447E-2],"split_indices":[111,299,242,269,269,322,55,224,19,306,77,299,0,290,0,45,213,2,124,247,261,186,0,229,46,273,0,46,273,242,94,4,0,186,0,271,3,309,0,0,0,49,303,230,0,0,261,0,0,0,0,0,0,0,0,0,0,0,0,0,0,0,0,0,0,0,0,0,0,0,0,0,0],"split_type":[0,0,0,0,0,0,0,0,0,0,0,0,0,0,0,0,0,0,0,0,0,0,0,0,0,0,0,0,0,0,0,0,0,0,0,0,0,0,0,0,0,0,0,0,0,0,0,0,0,0,0,0,0,0,0,0,0,0,0,0,0,0,0,0,0,0,0,0,0,0,0,0,0],"sum_hessian":[3.987546E3,3.8945823E3,9.2963684E1,3.5281997E3,3.6638272E2,8.5510376E1,7.453309E0,3.500052E3,2.8147675E1,3.6015207E2,6.2306495E0,8.326769E1,2.2426808E0,6.206664E0,1.2466452E0,2.7327542E3,7.672978E2,2.3908136E1,4.2395377E0,3.5192508E2,8.226976E0,4.237657E0,1.9929923E0,7.805823E1,5.2094665E0,4.4804487E0,1.726215E0,2.6996396E3,3.3114494E1,6.7325775E2,9.403999E1,2.166828E1,2.2398562E0,2.9980924E0,1.2414455E0,3.205166E2,3.1408478E1,6.227538E0,1.9994388E0,2.7467353E0,1.490922E0,7.046081E1,7.597418E0,3.710054E0,1.4994124E0,1.7433447E0,2.7371042E0,2.5945432E3,1.05096466E2,2.7131462E1,5.9830327E0,5.9345184E2,7.9805916E1,9.281463E1,1.2253606E0,2.0419943E1,1.2483377E0,1.499669E0,1.4984233E0,3.1852884E2,1.9877652E0,2.5931076E1,5.4774003E0,4.991266E0,1.2362722E0,6.7812744E1,2.6480653E0,2.3854337E0,5.2119846E0,2.4704764E0,1.2395775E0,1.2413392E0,1.4957651E0],"tree_param":{"num_deleted":"0","num_feature":"362","num_nodes":"73","size_leaf_vector":"0"}},{"base_weights":[-5.7247025E-4,-1.7212856E-3,5.50865E-2,-4.5584496E-3,2.6514981E-2,2.5713647E-2,5.799128E-1,-7.4158474E-3,3.5659444E-2,3.9271202E-2,-2.1332958E-1,2.5465118E-4,4.3969017E-1,8.504172E-1,5.129544E-2,-9.344056E-3,7.238167E-2,1.4001417E-2,3.2803792E-1,3.1015148E-2,2.7857494E-1,-4.3305936E-1,7.357473E-2,2.70416E-2,-3.394325E-1,3.9870743E-2,6.2665445E-1,-1.2835088E-2,3.0190064E-2,5.100058E-2,5.621183E-1,-3.0696716E-3,3.1185648E-1,4.350693E-1,-4.3814263E-1,2.4770519E-2,4.1449448E-1,4.3907103E-1,-3.0726826E-1,-5.400986E-1,1.9707252E-1,1.5423496E-1,-2.2775897E-1,-1.7387602E-2,3.3858106E-1,-5.785983E-1,5.3781524E-2,-1.4648808E-2,9.4701074E-2,4.8596535E-2,-3.6891446E-1,2.5788786E-2,4.054855E-1,1.0417273E-2,-4.6392933E-1,5.042102E-1,-7.4336436E-3,2.9398385E-1,1.088179E0,3.687535E-4,1.2507652E-1,6.754511E-1,-4.163464E-3,5.374022E-1,-4.0274177E-2,-6.394688E-1,-1.8150063E-2,1.9969247E-1,-1.6475236E-2,2.0636955E-2,-3.5970756E-1,4.5106167E-1,-2.6785657E-2],"categories":[],"categories_nodes":[],"categories_segments":[],"categories_sizes":[],"default_left":[1,1,1,1,1,1,1,1,1,1,1,1,1,0,0,1,1,1,1,1,1,1,1,1,1,0,0,1,1,1,0,1,1,1,0,1,1,1,0,1,0,1,0,1,1,0,0,0,0,0,0,0,0,0,0,0,0,0,0,0,0,0,0,0,0,0,0,0,0,0,0,0,0],"id":15,"left_children":[1,3,5,7,9,11,13,15,17,19,21,23,25,-1,-1,27,29,31,33,35,37,39,41,43,45,-1,-1,47,49,51,-1,53,55,57,-1,59,61,63,-1,65,-1,67,-1,69,71,-1,-1,-1,-1,-1,-1,-1,-1,-1,-1,-1,-1,-1,-1,-1,-1,-1,-1,-1,-1,-1,-1,-1,-1,-1,-1,-1,-1],"loss_changes":[2.5508013E-1,3.1320179E-1,1.2287351E0,4.084685E-1,1.1005485E0,8.161132E-1,5.6115127E-1,5.110993E-1,1.4885839E0,6.6269076E-1,1.1781176E0,6.8214244E-1,3.1037045E-1,0E0,0E0,4.4754645E-1,7.920769E-1,1.1225622E0,1.5205733E0,7.7898884E-1,1.1886313E0,8.107338E-1,2.4757557E-1,9.67577E-1,5.464476E-1,0E0,0E0,5.821689E-1,1.9513083E0,6.705831E-1,0E0,1.3077259E0,7.387123E-1,1.03754E0,0E0,7.963409E-1,5.728294E-1,4.5568156E-1,0E0,4.652021E-1,0E0,6.1422557E-2,0E0,8.113045E-1,3.7047237E-1,0E0,0E0,0E0,0E0,0E0,0E0,0E0,0E0,0E0,0E0,0E0,0E0,0E0,0E0,0E0,0E0,0E0,0E0,0E0,0E0,0E0,0E0,0E0,0E0,0E0,0E0,0E0,0E0],"parents":[2147483647,0,0,1,1,2,2,3,3,4,4,5,5,6,6,7,7,8,8,9,9,10,10,11,11,12,12,15,15,16,16,17,17,18,18,19,19,20,20,21,21,22,22,23,23,24,24,27,27,28,28,29,29,31,31,32,32,33,33,35,35,36,36,37,37,39,39,41,41,43,43,44,44],"right_children":[2,4,6,8,10,12,14,16,18,20,22,24,26,-1,-1,28,30,32,34,36,38,40,42,44,46,-1,-1,48,50,52,-1,54,56,58,-1,60,62,64,-1,66,-1,68,-1,70,72,-1,-1,-1,-1,-1,-1,-1,-1,-1,-1,-1,-1,-1,-1,-1,-1,-1,-1,-1,-1,-1,-1,-1,-1,-1,-1,-1,-1],"split_conditions":[5E-1,5E-1,5E-1,5E-1,5E-1,5E-1,5E-1,5E-1,5E-1,5E-1,5E-1,5E-1,5E-1,2.5512516E-1,1.5388633E-2,5E-1,5E-1,5E-1,5E-1,5E-1,5E-1,5E-1,5E-1,5E-1,5E-1,1.1961224E-2,1.8799634E-1,5E-1,5E-1,5E-1,1.6863549E-1,5E-1,5E-1,5E-1,-1.314428E-1,5E-1,5E-1,5E-1,-9.218048E-2,5E-1,5.9121758E-2,5E-1,-6.8327695E-2,5E-1,5E-1,-1.735795E-1,1.6134458E-2,-4.3946425E-3,2.8410323E-2,1.4578961E-2,-1.10674344E-1,7.736636E-3,1.2164566E-1,3.1251821E-3,-1.391788E-1,1.5126306E-1,-2.230093E-3,8.819516E-2,3.2645372E-1,1.1062605E-4,3.7522957E-2,2.0263533E-1,-1.2490393E-3,1.6122067E-1,-1.2082254E-2,-1.9184065E-1,-5.4450193E-3,5.9907746E-2,-4.942571E-3,6.191087E-3,-1.0791227E-1,1.353185E-1,-8.035697E-3],"split_indices":[292,278,213,77,243,114,109,209,236,318,124,149,265,0,0,99,78,54,119,139,149,200,261,117,124,0,0,193,267,5,0,271,293,0,0,56,261,3,0,299,0,4,0,77,84,0,0,0,0,0,0,0,0,0,0,0,0,0,0,0,0,0,0,0,0,0,0,0,0,0,0,0,0],"split_type":[0,0,0,0,0,0,0,0,0,0,0,0,0,0,0,0,0,0,0,0,0,0,0,0,0,0,0,0,0,0,0,0,0,0,0,0,0,0,0,0,0,0,0,0,0,0,0,0,0,0,0,0,0,0,0,0,0,0,0,0,0,0,0,0,0,0,0,0,0,0,0,0,0],"sum_hessian":[3.986767E3,3.9070928E3,7.967432E1,3.551117E3,3.5597565E2,7.644493E1,3.2293847E0,3.3163152E3,2.3480171E2,3.387931E2,1.7182573E1,7.295869E1,3.4862454E0,1.7335392E0,1.4958456E0,3.2389333E3,7.738193E1,2.1958386E2,1.5217855E1,3.2858636E2,1.0206728E1,9.441921E0,7.740652E0,6.847899E1,4.479703E0,1.4973805E0,1.988865E0,2.976749E3,2.6218433E2,7.5202835E1,2.1790924E0,2.08617E2,1.0966858E1,1.373176E1,1.486096E0,3.2436887E2,4.2174735E0,8.208484E0,1.9982437E0,8.193062E0,1.2488588E0,6.4912496E0,1.2494022E0,6.075832E1,7.7206655E0,2.4923275E0,1.9873755E0,2.9282249E3,4.8524075E1,2.5146515E2,1.0719193E1,7.12109E1,3.991935E0,2.0363507E2,4.9819345E0,6.482418E0,4.48444E0,1.248489E1,1.2468693E0,2.617064E2,6.266248E1,2.2202082E0,1.9972656E0,6.7107477E0,1.4977366E0,6.693564E0,1.4994981E0,4.9921436E0,1.4991063E0,5.5529835E1,5.228484E0,5.7239604E0,1.996705E0],"tree_param":{"num_deleted":"0","num_feature":"362","num_nodes":"73","size_leaf_vector":"0"}},{"base_weights":[-1.4242552E-4,-5.0917896E-3,1.4239862E-2,-2.4408272E-3,-9.215719E-2,1.130824E-2,3.8737273E-1,-7.913146E-4,-1.02315105E-1,-1.3094416E-1,2.4152395E-1,6.5149916E-3,1.8396297E-1,5.106527E-1,-8.832201E-2,-4.9667177E-3,3.4092948E-2,-1.6454276E-1,3.4961596E-1,-1.5218791E-1,3.1305552E-1,3.279272E-1,-1.8380591E-1,-1.2406546E-3,1.0659309E-1,9.638252E-2,6.0944307E-1,2.341251E-1,9.343318E-1,1.3051213E-4,-4.821554E-2,5.638564E-2,-1.3466701E-1,-2.2936043E-1,2.6266432E-1,5.414729E-1,-2.1091919E-1,-2.0038767E-1,3.5500027E-2,4.927375E-1,-5.373784E-2,4.3982142E-1,-1.4206199E-2,8.495482E-3,-8.671894E-2,5.747962E-2,6.076228E-1,1.9069357E-3,4.779926E-1,3.9355186E-1,-1.6338209E-2,-7.6109315E-3,3.362466E-2,-9.05944E-3,-1.5877676E-1,7.456607E-2,-1.544226E-1,-6.729275E-2,-9.1758126E-1,-2.6859525E-1,4.17964E-1,4.2061594E-1,-3.5976224E-2,7.392033E-1,6.6931635E-2,-2.3796593E-1,3.5496503E-2,1.3643084E-1,-2.2336638E-1,5.491519E-1,5.5869527E-2,2.2217133E-3,2.1154468E-1,-4.1024804E-2,-1.0419173E0,4.399116E-3,4.874661E-1,6.94596E-1,2.4367183E-1,7.558642E-2,-6.182747E-1,7.426692E-1,-5.7917155E-2],"categories":[],"categories_nodes":[],"categories_segments":[],"categories_sizes":[],"default_left":[1,1,1,1,1,1,1,1,1,1,1,1,1,1,0,1,1,1,1,1,1,1,0,1,1,1,0,1,0,1,1,1,1,1,1,1,0,1,1,0,0,1,0,1,1,1,1,1,1,0,0,0,0,0,0,0,0,0,0,0,0,0,0,0,0,0,0,0,0,0,0,0,0,0,0,0,0,0,0,0,0,0,0],"id":16,"left_children":[1,3,5,7,9,11,13,15,17,19,21,23,25,27,-1,29,31,33,35,37,39,41,-1,43,45,47,-1,49,-1,51,53,55,57,59,61,63,-1,65,67,-1,-1,69,-1,71,73,75,77,79,81,-1,-1,-1,-1,-1,-1,-1,-1,-1,-1,-1,-1,-1,-1,-1,-1,-1,-1,-1,-1,-1,-1,-1,-1,-1,-1,-1,-1,-1,-1,-1,-1,-1,-1],"loss_changes":[2.8386754E-1,6.8454313E-1,1.1124606E0,4.7441483E-1,1.1658766E0,8.3801186E-1,5.100907E-1,4.1301838E-1,1.3733398E0,7.942984E-1,4.0858E-1,7.667573E-1,9.6061474E-1,5.362886E-1,0E0,5.582484E-1,1.1479676E0,1.2178684E0,7.576062E-1,6.9662404E-1,2.8626025E-1,3.2156968E-1,0E0,7.644333E-1,1.7134051E0,8.597928E-1,0E0,2.1541959E-1,0E0,5.878933E-1,1.1543914E0,1.0403965E0,1.8194838E0,1.0477147E0,2.9690662E-1,3.9504886E-1,0E0,5.473399E-1,4.5957989E-1,0E0,0E0,2.3117685E-1,0E0,1.050139E0,4.056739E0,1.4999169E0,2.8215647E-2,9.670202E-1,7.144251E-1,0E0,0E0,0E0,0E0,0E0,0E0,0E0,0E0,0E0,0E0,0E0,0E0,0E0,0E0,0E0,0E0,0E0,0E0,0E0,0E0,0E0,0E0,0E0,0E0,0E0,0E0,0E0,0E0,0E0,0E0,0E0,0E0,0E0,0E0],"parents":[2147483647,0,0,1,1,2,2,3,3,4,4,5,5,6,6,7,7,8,8,9,9,10,10,11,11,12,12,13,13,15,15,16,16,17,17,18,18,19,19,20,20,21,21,23,23,24,24,25,25,27,27,29,29,30,30,31,31,32,32,33,33,34,34,35,35,37,37,38,38,41,41,43,43,44,44,45,45,46,46,47,47,48,48],"right_children":[2,4,6,8,10,12,14,16,18,20,22,24,26,28,-1,30,32,34,36,38,40,42,-1,44,46,48,-1,50,-1,52,54,56,58,60,62,64,-1,66,68,-1,-1,70,-1,72,74,76,78,80,82,-1,-1,-1,-1,-1,-1,-1,-1,-1,-1,-1,-1,-1,-1,-1,-1,-1,-1,-1,-1,-1,-1,-1,-1,-1,-1,-1,-1,-1,-1,-1,-1,-1,-1],"split_conditions":[5E-1,5E-1,5E-1,5E-1,5E-1,5E-1,5E-1,5E-1,5E-1,5E-1,5E-1,5E-1,5E-1,5E-1,-2.6496606E-2,5E-1,5E-1,5E-1,5E-1,5E-1,5E-1,5E-1,-5.5141777E-2,5E-1,5E-1,5E-1,1.8283293E-1,5E-1,2.8029954E-1,5E-1,5E-1,5E-1,5E-1,5E-1,5E-1,5E-1,-6.327576E-2,5E-1,5E-1,1.4782126E-1,-1.6121354E-2,5E-1,-4.2618597E-3,5E-1,5E-1,5E-1,5E-1,5E-1,5E-1,1.1806556E-1,-4.9014627E-3,-2.2832796E-3,1.0087399E-2,-2.717832E-3,-4.763303E-2,2.2369822E-2,-4.632678E-2,-2.0187825E-2,-2.752744E-1,-8.057858E-2,1.253892E-1,1.2618479E-1,-1.0792867E-2,2.2176099E-1,2.0079492E-2,-7.138978E-2,1.0648951E-2,4.0929254E-2,-6.700992E-2,1.6474557E-1,1.676086E-2,6.6651404E-4,6.3463405E-2,-1.2307442E-2,-3.1257522E-1,1.3197348E-3,1.4623983E-1,2.083788E-1,7.310155E-2,2.2675928E-2,-1.8548241E-1,2.2280078E-1,-1.7375147E-2],"split_indices":[293,136,283,283,318,90,2,71,311,62,131,30,71,273,0,252,236,131,56,121,187,122,0,242,56,80,0,318,0,183,89,243,278,97,213,109,0,116,213,0,0,86,0,42,15,299,131,276,131,0,0,0,0,0,0,0,0,0,0,0,0,0,0,0,0,0,0,0,0,0,0,0,0,0,0,0,0,0,0,0,0,0,0],"split_type":[0,0,0,0,0,0,0,0,0,0,0,0,0,0,0,0,0,0,0,0,0,0,0,0,0,0,0,0,0,0,0,0,0,0,0,0,0,0,0,0,0,0,0,0,0,0,0,0,0,0,0,0,0,0,0,0,0,0,0,0,0,0,0,0,0,0,0,0,0,0,0,0,0,0,0,0,0,0,0,0,0,0,0],"sum_hessian":[3.985827E3,2.9658408E3,1.01998627E3,2.879203E3,8.663779E1,1.0130572E3,6.92906E0,2.8334146E3,4.5788437E1,7.8160065E1,8.477721E0,9.867021E2,2.6355133E1,5.444569E0,1.4844906E0,2.531294E3,3.021206E2,4.08057E1,4.982739E0,7.5218376E1,2.9416888E0,7.2366443E0,1.2410764E0,9.1665283E2,7.004927E1,2.2873415E1,3.4817173E0,4.2338276E0,1.2107419E0,2.265306E3,2.6598798E2,2.674563E2,3.466431E1,3.58322E1,4.973498E0,3.7374961E0,1.245243E0,5.9794907E1,1.542347E1,1.7439903E0,1.1976984E0,5.2380285E0,1.9986159E0,8.237291E2,9.2923676E1,6.48109E1,5.2383695E0,1.9139923E1,3.7334924E0,2.23799E0,1.9958375E0,1.8406521E3,4.246539E2,1.9722218E2,6.876579E1,2.4681673E2,2.063958E1,3.291752E1,1.7467896E0,3.4336132E1,1.4960701E0,2.9858434E0,1.9876543E0,2.2445307E0,1.4929655E0,5.1570484E1,8.224421E0,1.1437147E1,3.9863226E0,3.742179E0,1.4958496E0,8.000212E2,2.3707935E1,8.9676735E1,3.246946E0,5.8588554E1,6.2223454E0,3.494744E0,1.7436253E0,1.7892376E1,1.2475473E0,2.240927E0,1.4925655E0],"tree_param":{"num_deleted":"0","num_feature":"362","num_nodes":"83","size_leaf_vector":"0"}},{"base_weights":[1.2960374E-4,-3.8839257E-3,1.6203098E-2,-2.967349E-3,-1.1460033E-1,2.7331783E-2,-7.643436E-2,-4.8471754E-3,5.0087474E-2,-2.14417E-1,2.7908793E-1,1.8132942E-2,1.165684E-1,-1.16322905E-1,2.2338043E-1,-2.7333124E-4,-3.2545555E-2,9.7302765E-2,-1.8555939E-1,-3.4676027E-1,5.5696055E-2,3.6834776E-2,3.9901295E-1,9.952451E-3,1.7424713E-1,7.505663E-2,1.1488774E0,-6.021941E-2,-3.5332802E-1,4.9145925E-3,6.6589975E-1,3.5894075E-3,-3.9447363E-2,-4.0209405E-2,2.8940523E-1,1.1559491E-1,-6.755468E-1,-9.1447465E-2,-6.411185E-1,-8.132036E-2,-5.453064E-1,1.7307483E-1,-2.73248E-1,2.5405234E-2,-6.370939E-2,2.3372005E-1,-2.439552E-1,2.2192085E-2,4.2526478E-1,-8.239019E-2,3.7747887E-1,-4.2709228E-1,2.36407E-1,-1.4939125E-1,1.965507E-1,9.0157473E-1,1.379834E-1,7.5656255E-3,-6.57556E-2,-5.340879E-2,3.9306372E-1,-3.0107804E-2,-2.5456062E-1,4.78359E-1,-4.078755E-1,1.3858439E-1,-3.817603E-1,-1.6508748E-1,3.8724375E-1,-1.7509957E-1,1.4553292E-1,-6.2350804E-1,-1.6522314E-1,3.2435802E-1,-2.5510132E-1,6.6357674E-3,1.0941077E-1,-1.3958138E-1,6.4782016E-2,2.673905E-1,-2.8278682E-1,-3.8094082E-1,1.7623048E-2,-3.057777E-3,6.429214E-1,5.1688206E-1,4.4010152E-4,-6.311123E-2,-5.649598E-1,-5.1665884E-1,4.8934523E-2,-2.826558E-1,3.34461E-2,3.3678484E-1,-2.1881301E-2],"categories":[],"categories_nodes":[],"categories_segments":[],"categories_sizes":[],"default_left":[1,1,1,1,1,1,1,1,1,1,1,1,1,1,1,1,1,1,1,1,1,0,0,1,1,1,0,1,1,1,1,1,1,1,1,1,0,1,0,1,1,1,0,1,1,1,1,1,1,1,0,1,0,1,1,0,0,0,0,0,0,0,0,0,0,0,0,0,0,0,0,0,0,0,0,0,0,0,0,0,0,0,0,0,0,0,0,0,0,0,0,0,0,0,0],"id":17,"left_children":[1,3,5,7,9,11,13,15,17,19,21,23,25,27,29,31,33,35,37,39,41,-1,-1,43,45,47,-1,49,51,53,55,57,59,61,63,65,-1,67,-1,69,71,73,-1,75,77,79,81,83,85,87,-1,89,-1,91,93,-1,-1,-1,-1,-1,-1,-1,-1,-1,-1,-1,-1,-1,-1,-1,-1,-1,-1,-1,-1,-1,-1,-1,-1,-1,-1,-1,-1,-1,-1,-1,-1,-1,-1,-1,-1,-1,-1,-1,-1],"loss_changes":[2.571974E-1,3.234093E-1,8.233297E-1,3.1591117E-1,1.088139E0,5.8226806E-1,1.0508485E0,3.8736668E-1,1.2240847E0,7.857579E-1,1.5168881E-1,8.2398033E-1,2.7567816E0,9.931605E-1,1.0026443E0,3.9740855E-1,1.0808814E0,1.3639791E0,7.3184997E-1,7.2133064E-1,3.5278505E-1,0E0,0E0,7.0214635E-1,8.5621053E-1,1.191143E0,0E0,6.4143425E-1,7.272762E-1,2.6514354E-1,3.0254734E-1,6.5967035E-1,1.4443877E0,9.1075224E-1,1.5387135E0,1.0786386E0,0E0,6.4370096E-1,0E0,1.8274441E-1,1.3881564E-1,5.001259E-1,0E0,8.0250305E-1,1.0521954E0,5.737393E-1,1.675995E-1,9.015918E-1,3.2866073E-1,5.289053E-1,0E0,5.860803E-1,0E0,1.3091967E-1,1.2953976E-1,0E0,0E0,0E0,0E0,0E0,0E0,0E0,0E0,0E0,0E0,0E0,0E0,0E0,0E0,0E0,0E0,0E0,0E0,0E0,0E0,0E0,0E0,0E0,0E0,0E0,0E0,0E0,0E0,0E0,0E0,0E0,0E0,0E0,0E0,0E0,0E0,0E0,0E0,0E0,0E0],"parents":[2147483647,0,0,1,1,2,2,3,3,4,4,5,5,6,6,7,7,8,8,9,9,10,10,11,11,12,12,13,13,14,14,15,15,16,16,17,17,18,18,19,19,20,20,23,23,24,24,25,25,27,27,28,28,29,29,30,30,31,31,32,32,33,33,34,34,35,35,37,37,39,39,40,40,41,41,43,43,44,44,45,45,46,46,47,47,48,48,49,49,51,51,53,53,54,54],"right_children":[2,4,6,8,10,12,14,16,18,20,22,24,26,28,30,32,34,36,38,40,42,-1,-1,44,46,48,-1,50,52,54,56,58,60,62,64,66,-1,68,-1,70,72,74,-1,76,78,80,82,84,86,88,-1,90,-1,92,94,-1,-1,-1,-1,-1,-1,-1,-1,-1,-1,-1,-1,-1,-1,-1,-1,-1,-1,-1,-1,-1,-1,-1,-1,-1,-1,-1,-1,-1,-1,-1,-1,-1,-1,-1,-1,-1,-1,-1,-1],"split_conditions":[5E-1,5E-1,5E-1,5E-1,5E-1,5E-1,5E-1,5E-1,5E-1,5E-1,5E-1,5E-1,5E-1,5E-1,5E-1,5E-1,5E-1,5E-1,5E-1,5E-1,5E-1,1.1050433E-2,1.1970389E-1,5E-1,5E-1,5E-1,3.4466323E-1,5E-1,5E-1,5E-1,5E-1,5E-1,5E-1,5E-1,5E-1,5E-1,-2.0266406E-1,5E-1,-1.9233556E-1,5E-1,5E-1,5E-1,-8.19744E-2,5E-1,5E-1,5E-1,5E-1,5E-1,5E-1,5E-1,1.1324366E-1,5E-1,7.09221E-2,5E-1,5E-1,2.7047244E-1,4.139502E-2,2.2696878E-3,-1.972668E-2,-1.6022637E-2,1.17919125E-1,-9.032342E-3,-7.636819E-2,1.435077E-1,-1.2236266E-1,4.157532E-2,-1.145281E-1,-4.9526244E-2,1.16173126E-1,-5.252987E-2,4.3659877E-2,-1.8705241E-1,-4.9566943E-2,9.730741E-2,-7.65304E-2,1.9907304E-3,3.282323E-2,-4.1874416E-2,1.9434605E-2,8.021715E-2,-8.483605E-2,-1.1428225E-1,5.2869148E-3,-9.173331E-4,1.9287643E-1,1.5506463E-1,1.3203046E-4,-1.893337E-2,-1.6948795E-1,-1.5499766E-1,1.4680358E-2,-8.479674E-2,1.003383E-2,1.0103545E-1,-6.5643904E-3],"split_indices":[237,144,66,319,247,205,183,3,261,312,302,201,181,224,121,61,276,28,278,121,43,0,0,6,20,185,0,303,49,270,43,267,309,294,59,25,0,48,0,293,273,78,0,293,56,84,109,10,24,117,0,80,0,89,54,0,0,0,0,0,0,0,0,0,0,0,0,0,0,0,0,0,0,0,0,0,0,0,0,0,0,0,0,0,0,0,0,0,0,0,0,0,0,0,0],"split_type":[0,0,0,0,0,0,0,0,0,0,0,0,0,0,0,0,0,0,0,0,0,0,0,0,0,0,0,0,0,0,0,0,0,0,0,0,0,0,0,0,0,0,0,0,0,0,0,0,0,0,0,0,0,0,0,0,0,0,0,0,0,0,0,0,0,0,0,0,0,0,0,0,0,0,0,0,0,0,0,0,0,0,0,0,0,0,0,0,0,0,0,0,0,0,0],"sum_hessian":[3.9848745E3,3.1892751E3,7.955993E2,3.1641077E3,2.5167572E1,7.109024E2,8.4696884E1,3.0567114E3,1.0739607E2,2.0440422E1,4.72715E0,6.45559E2,6.534341E1,7.529179E1,9.4051E0,2.6243599E3,4.3235168E2,8.9958626E1,1.7437443E1,1.3528369E1,6.9120536E0,1.9980866E0,2.7290635E0,6.144264E2,3.1132616E1,6.38486E1,1.4948072E0,6.1894337E1,1.3397449E1,6.973489E0,2.4316113E0,2.389639E3,2.3472095E2,4.2315387E2,9.1978245E0,8.870944E1,1.2491843E0,1.5447044E1,1.990399E0,6.392158E0,7.1362114E0,5.443477E0,1.4685763E0,5.0842426E2,1.0600213E2,2.764266E1,3.489956E0,5.639851E1,7.4500875E0,5.9682976E1,2.2113633E0,1.2153121E1,1.2443273E0,3.985111E0,2.9883776E0,1.1917751E0,1.2398363E0,2.260891E3,1.287478E2,2.2823021E2,6.490741E0,4.0519876E2,1.7955101E1,7.4837837E0,1.7140408E0,8.547964E1,3.2298088E0,1.3955337E1,1.4917076E0,4.6839786E0,1.7081792E0,5.3873253E0,1.7488859E0,4.201477E0,1.242E0,4.164543E2,9.196994E1,6.659349E1,3.9408638E1,2.6403744E1,1.2389166E0,1.9909831E0,1.4989727E0,5.51502E1,1.2483114E0,5.950182E0,1.4999057E0,5.8477543E1,1.2054331E0,1.0156731E1,1.9963908E0,1.9892592E0,1.9958518E0,1.4899774E0,1.4984003E0],"tree_param":{"num_deleted":"0","num_feature":"362","num_nodes":"95","size_leaf_vector":"0"}},{"base_weights":[1.4768606E-4,-3.6101253E-3,1.4418104E-2,-7.208158E-4,-3.7512336E-2,8.056496E-3,1.4461274E-1,9.927254E-4,-7.107409E-2,-1.7736517E-2,-2.8628108E-1,1.7005287E-2,-8.656577E-2,1.8506895E-1,-3.147582E-1,-2.8390146E-3,3.9717574E-2,3.6555525E-2,-2.8024936E-1,5.767455E-3,-2.417317E-1,-3.6191386E-1,7.399081E-2,1.954464E-2,-3.6753073E-1,-5.8998186E-2,-7.9303837E-1,2.3607096E-1,-2.2641215E-1,-4.1986983E-3,1.5646254E-1,2.9003622E-2,4.83597E-1,7.466456E-2,-4.2050087E-1,-4.06151E-1,3.0632958E-1,3.2941453E-2,-2.1390791E-1,-1.654904E-1,-8.612603E-1,-4.6005657E-1,2.8129147E-2,2.7189597E-2,-8.462679E-2,-6.7440337E-1,4.3369822E-2,-3.824775E-2,-6.415935E-1,2.9155642E-1,-9.10622E-3,1.8290962E-1,-5.531325E-1,-4.6281438E-4,-4.937423E-2,4.918073E-2,8.885588E-1,1.2987382E-2,2.3618756E-1,7.7255464E-1,-1.3669425E-1,1.2477071E-1,-2.1957292E-1,-4.8815838E-1,1.23725645E-1,-2.2477613E-1,5.607374E-1,1.6410513E-2,2.977854E-1,-1.3009337E-1,-5.5796504E-1,-2.5515705E-1,1.3266306E-1,-5.4214203E-1,7.680716E-2,4.6738904E-2,-1.721819E-3,2.2611205E-2,2.3428692E-1,-1.452996E-1,1.8787313E-1,-6.8004444E-2,6.1712295E-1,1.8601224E-1,5.066904E-1,-2.5550915E-2,2.1325214E-2],"categories":[],"categories_nodes":[],"categories_segments":[],"categories_sizes":[],"default_left":[1,1,1,1,1,1,1,1,1,1,1,1,1,1,0,1,1,1,1,1,1,1,0,1,1,1,0,1,1,1,1,1,1,1,0,1,1,1,1,1,0,1,1,1,1,0,0,1,0,1,1,0,0,0,0,0,0,0,0,0,0,0,0,0,0,0,0,0,0,0,0,0,0,0,0,0,0,0,0,0,0,0,0,0,0,0,0],"id":18,"left_children":[1,3,5,7,9,11,13,15,17,19,21,23,25,27,-1,29,31,33,35,37,39,41,-1,43,45,47,-1,49,51,53,55,57,59,61,-1,63,65,67,69,71,-1,73,75,77,79,-1,-1,81,-1,83,85,-1,-1,-1,-1,-1,-1,-1,-1,-1,-1,-1,-1,-1,-1,-1,-1,-1,-1,-1,-1,-1,-1,-1,-1,-1,-1,-1,-1,-1,-1,-1,-1,-1,-1,-1,-1],"loss_changes":[2.1373112E-1,3.0900687E-1,6.869117E-1,3.5065728E-1,1.2137052E0,6.7305E-1,7.764073E-1,4.2152017E-1,1.5673013E0,1.2152528E0,5.2209103E-1,7.155443E-1,1.2910331E0,8.1199837E-1,0E0,5.6061316E-1,1.202366E0,8.421918E-1,1.8681798E0,1.2585038E0,8.9277685E-1,5.9454525E-1,0E0,5.769878E-1,6.3570637E-1,7.8775465E-1,0E0,4.4679654E-1,7.0250016E-1,4.3275663E-1,1.6767247E0,8.292011E-1,1.1746447E0,6.733802E-1,0E0,9.2379665E-1,7.6683116E-1,8.1571156E-1,5.9676766E-1,5.887193E-1,0E0,5.7913184E-1,2.30078E-3,6.328589E-1,8.470317E-1,0E0,0E0,1.3279995E0,0E0,5.109501E-1,4.045316E-3,0E0,0E0,0E0,0E0,0E0,0E0,0E0,0E0,0E0,0E0,0E0,0E0,0E0,0E0,0E0,0E0,0E0,0E0,0E0,0E0,0E0,0E0,0E0,0E0,0E0,0E0,0E0,0E0,0E0,0E0,0E0,0E0,0E0,0E0,0E0,0E0],"parents":[2147483647,0,0,1,1,2,2,3,3,4,4,5,5,6,6,7,7,8,8,9,9,10,10,11,11,12,12,13,13,15,15,16,16,17,17,18,18,19,19,20,20,21,21,23,23,24,24,25,25,27,27,28,28,29,29,30,30,31,31,32,32,33,33,35,35,36,36,37,37,38,38,39,39,41,41,42,42,43,43,44,44,47,47,49,49,50,50],"right_children":[2,4,6,8,10,12,14,16,18,20,22,24,26,28,-1,30,32,34,36,38,40,42,-1,44,46,48,-1,50,52,54,56,58,60,62,-1,64,66,68,70,72,-1,74,76,78,80,-1,-1,82,-1,84,86,-1,-1,-1,-1,-1,-1,-1,-1,-1,-1,-1,-1,-1,-1,-1,-1,-1,-1,-1,-1,-1,-1,-1,-1,-1,-1,-1,-1,-1,-1,-1,-1,-1,-1,-1,-1],"split_conditions":[5E-1,5E-1,5E-1,5E-1,5E-1,5E-1,5E-1,5E-1,5E-1,5E-1,5E-1,5E-1,5E-1,5E-1,-9.442747E-2,5E-1,5E-1,5E-1,5E-1,5E-1,5E-1,5E-1,2.2197243E-2,5E-1,5E-1,5E-1,-2.3791152E-1,5E-1,5E-1,5E-1,5E-1,5E-1,5E-1,5E-1,-1.2615027E-1,5E-1,5E-1,5E-1,5E-1,5E-1,-2.583781E-1,5E-1,5E-1,5E-1,5E-1,-2.0232102E-1,1.3010947E-2,5E-1,-1.9247806E-1,5E-1,5E-1,5.487289E-2,-1.6593975E-1,-1.3884432E-4,-1.4812269E-2,1.475422E-2,2.6656765E-1,3.8962148E-3,7.085627E-2,2.317664E-1,-4.100828E-2,3.7431214E-2,-6.587188E-2,-1.4644752E-1,3.7117694E-2,-6.743284E-2,1.6822122E-1,4.923154E-3,8.933562E-2,-3.902801E-2,-1.6738951E-1,-7.6547116E-2,3.979892E-2,-1.6264261E-1,2.304215E-2,1.4021671E-2,-5.165457E-4,6.7833615E-3,7.028608E-2,-4.3589883E-2,5.636194E-2,-2.0401334E-2,1.8513688E-1,5.5803675E-2,1.5200712E-1,-7.6652747E-3,6.3975644E-3],"split_indices":[290,195,85,16,142,25,181,122,2,243,266,325,303,49,0,325,148,225,224,4,247,6,0,211,270,259,0,330,80,117,4,9,270,54,0,206,122,242,73,2,0,197,270,132,242,0,0,117,0,270,183,0,0,0,0,0,0,0,0,0,0,0,0,0,0,0,0,0,0,0,0,0,0,0,0,0,0,0,0,0,0,0,0,0,0,0,0],"split_type":[0,0,0,0,0,0,0,0,0,0,0,0,0,0,0,0,0,0,0,0,0,0,0,0,0,0,0,0,0,0,0,0,0,0,0,0,0,0,0,0,0,0,0,0,0,0,0,0,0,0,0,0,0,0,0,0,0,0,0,0,0,0,0,0,0,0,0,0,0,0,0,0,0,0,0,0,0,0,0,0,0,0,0,0,0,0,0],"sum_hessian":[3.9836511E3,3.1538884E3,8.297625E2,2.9071487E3,2.4673991E2,7.921196E2,3.76429E1,2.8389875E3,6.816116E1,2.2956221E2,1.7177704E1,7.24428E2,6.769165E1,3.514486E1,2.498037E0,2.584212E3,2.5477551E2,4.5549328E1,2.2611837E1,2.0864337E2,2.0918844E1,1.4193475E1,2.9842288E0,7.206184E2,3.8095627E0,6.6192245E1,1.4994065E0,3.1648413E1,3.4964485E0,2.5633071E3,2.0904905E1,2.4981114E2,4.9643683E0,4.2816E1,2.7333279E0,1.8869364E1,3.7424731E0,1.8643169E2,2.2211685E1,1.9754866E1,1.1639779E0,1.1196666E1,2.9968095E0,6.720377E2,4.8580673E1,1.8137326E0,1.99583E0,6.494474E1,1.2475017E0,2.5653633E1,5.994779E0,1.7474158E0,1.7490327E0,2.3684531E3,1.9485388E2,1.9163809E1,1.7410976E0,2.328718E2,1.6939342E1,3.2192404E0,1.7451277E0,3.70779E1,5.7380996E0,1.6408588E1,2.460775E0,1.2498143E0,2.4926589E0,1.7647829E2,9.953399E0,1.8968864E1,3.2428222E0,1.5298274E1,4.4565926E0,9.703228E0,1.4934375E0,1.4974959E0,1.4993137E0,6.585872E2,1.3450502E1,4.011562E1,8.465056E0,6.2981346E1,1.9633932E0,1.8461233E1,7.1924E0,3.9958553E0,1.9989235E0],"tree_param":{"num_deleted":"0","num_feature":"362","num_nodes":"87","size_leaf_vector":"0"}},{"base_weights":[-3.1598018E-5,2.1296996E-3,-2.2998326E-2,-1.1363296E-3,3.5437886E-2,-3.5841733E-2,2.1149911E-1,1.2016319E-3,-4.9199656E-2,-1.4776358E-2,1.503934E-1,-2.562126E-2,-3.744297E-1,-2.8759468E-2,6.1635983E-1,1.1781435E-5,9.527332E-2,-6.491593E-2,2.668924E-1,-7.921824E-3,-6.992514E-1,2.0997337E-1,-2.348079E-1,-4.1101616E-2,1.5731482E-1,-4.365595E-2,-6.9562954E-1,1.3258408E-1,-3.6323038E-1,9.304508E-2,1.0755947E0,2.9955306E-3,-4.4041354E-2,1.7990182E-1,-2.3577751E-1,-2.1668518E-2,-1.782475E-1,8.2300484E-2,6.624106E-1,1.0588635E-2,-2.4034001E-1,2.3898044E-1,-1.8318768E-1,-3.0858713E-1,2.8039226E-1,-1.7902184E-2,-1.8816616E-1,7.000674E-2,5.666965E-1,4.8668865E-2,-2.0850512E-1,-1.0177833E0,-8.356929E-6,3.0848902E-1,-2.3151621E-1,-4.71163E-2,-6.233245E-1,3.165982E-1,-2.474478E-1,-9.823772E-4,4.3387484E-2,-5.4219462E-2,6.399505E-1,1.2282205E-1,5.7993823E-1,-7.7848755E-2,-6.394804E-1,-6.177613E-2,2.7011457E-1,-1.246052E-1,-8.781066E-1,1.4130603E-1,-2.87345E-2,3.8415776E-3,6.3354367E-1,-3.2516718E-1,1.3988706E-1,2.0756836E-1,7.6005E-1,7.3538035E-2,-7.0054305E-1,-3.934072E-1,2.5327426E-1,2.5049325E-3,-2.3420346E-1,-2.3336704E-1,2.19209E-1,2.0505819E-1,-1.5393284E-1,1.10788E0,-2.8172208E-2,-7.1883644E-3,9.6380524E-2,1.1809498E-1,5.239236E-1],"categories":[],"categories_nodes":[],"categories_segments":[],"categories_sizes":[],"default_left":[1,1,1,1,1,1,1,1,1,1,1,1,1,1,1,1,1,1,1,1,0,1,1,1,1,1,1,1,1,1,0,1,1,1,1,1,1,1,0,1,1,1,1,1,0,1,1,1,1,1,0,0,0,1,0,0,0,0,0,0,0,0,0,0,0,0,0,0,0,0,0,0,0,0,0,0,0,0,0,0,0,0,0,0,0,0,0,0,0,0,0,0,0,0,0],"id":19,"left_children":[1,3,5,7,9,11,13,15,17,19,21,23,25,27,29,31,33,35,37,39,-1,41,43,45,47,49,51,53,55,57,-1,59,61,63,65,67,69,71,-1,73,75,77,79,81,-1,83,85,87,89,91,-1,-1,-1,93,-1,-1,-1,-1,-1,-1,-1,-1,-1,-1,-1,-1,-1,-1,-1,-1,-1,-1,-1,-1,-1,-1,-1,-1,-1,-1,-1,-1,-1,-1,-1,-1,-1,-1,-1,-1,-1,-1,-1,-1,-1],"loss_changes":[1.9778086E-1,3.9621243E-1,1.0397354E0,3.728514E-1,1.8796196E0,1.1177411E0,1.7628152E0,3.54219E-1,7.819391E-1,1.0607567E0,2.320614E0,9.050255E-1,9.7597384E-1,7.073048E-1,1.5163548E0,4.1103685E-1,1.1498222E0,7.1872777E-1,4.9202263E-1,9.749557E-1,0E0,1.0272713E0,6.08379E-1,9.9743545E-1,8.5254693E-1,9.740799E-2,1.0618885E0,6.460686E-1,3.1941468E-1,4.009605E-1,0E0,4.7061768E-1,1.4156647E0,6.6053116E-1,4.9088025E-1,1.2787871E0,1.4140998E0,4.498035E-2,0E0,8.8153267E-1,5.846312E-1,1.1638813E0,9.137004E-1,6.9465244E-1,0E0,1.1238458E0,7.8518975E-1,6.8831724E-1,1.3984507E0,1.2647851E-2,0E0,0E0,0E0,2.0385152E-1,0E0,0E0,0E0,0E0,0E0,0E0,